2519370 300
, -0.023167 -0.0042483 -0.10572 0.042783 -0.14316 -0.078954 0.078187 -0.19454 0.022303 0.31207 0.057462 -0.11589 0.096633 -0.093229 -0.034229 -0.14652 -0.11094 -0.11102 0.067728 0.10023 -0.067413 0.23761 -0.13105 -0.0083979 -0.10593 0.24526 0.065903 -0.2374 -0.10758 0.0057082 -0.081413 0.26264 -0.052461 0.20306 0.05062 -0.18866 -0.11494 -0.25752 0.046799 -0.050525 0.06265 0.15433 -0.056289 -0.048437 -0.099688 -0.035332 -0.091647 -0.081151 -0.0010844 -0.08414 -0.13026 0.01498 -0.086276 -0.053041 -0.10644 -0.042314 0.086469 0.22614 -0.16078 0.18845 0.053098 -0.21475 0.16699 -0.14442 -0.1593 0.0062456 -0.07663 -0.091568 -0.28984 0.027078 0.021275 0.023939 0.14903 -0.33062 -0.097811 -0.033814 0.070587 0.023294 0.065382 0.18716 -0.13444 0.14431 -0.0268 -0.022903 0.097554 -0.032909 -0.027827 -0.068771 0.17053 -0.05946 0.020424 -0.077589 0.1216 -0.077437 0.10665 0.051087 0.0076379 -0.064936 0.09031 0.059447 0.0048881 0.078309 -0.012163 0.062155 -0.072664 0.17857 -0.22874 0.066397 -0.039295 -0.027717 0.061571 0.072824 -0.092512 -0.087984 -0.12753 -0.0018705 0.18689 0.0051173 -0.0013532 0.043246 0.10867 -0.12209 -0.0091676 0.23938 -0.059501 -0.0010456 0.086584 0.020238 0.21686 0.16495 0.037256 0.12343 0.17706 0.075777 0.031022 -0.12948 0.030936 0.096897 -0.10793 0.12644 -0.056489 0.082232 0.20679 0.11679 0.13965 0.26362 0.037603 -0.003105 -0.089501 -0.0076969 -0.11654 -0.28567 0.046616 -0.0082062 0.15621 -0.14641 0.064561 -0.1133 0.27129 0.14532 -0.021773 0.23305 -0.1617 0.15705 0.13845 0.022417 -0.10982 -0.049431 0.076855 -0.0453 -0.19029 0.011183 -0.010393 0.0016916 0.089407 -0.051022 -0.086066 0.083933 -0.0081962 -0.0077321 0.033991 -0.20092 0.03328 0.062224 0.016121 0.27143 -0.19754 -0.15222 -0.015345 -0.063907 -0.098597 -0.20162 0.14004 -1.1533e-05 -0.18928 0.12253 -0.0070378 0.0864 -0.30255 -0.03908 0.045517 -0.16449 -0.23548 0.052781 0.13847 -0.20022 -0.015974 0.027137 0.18287 -0.02389 0.22072 -0.04271 -0.075939 -0.087386 -0.049337 0.047824 -0.059078 -0.15181 -0.21229 -0.054944 -0.011453 -0.11996 -0.15307 -0.054828 -0.053217 -0.048546 0.028856 -0.094537 0.27144 0.054638 0.059727 0.061772 0.009259 -0.12032 -0.16646 -0.029087 0.0028752 -0.16076 -0.1371 -0.18988 0.022857 0.18455 -0.018236 -0.0060562 0.14302 0.032535 0.14333 -0.030871 -0.15218 0.092813 0.066358 0.018316 -0.24143 0.0054391 -0.064479 -0.08596 0.030446 0.082157 0.026093 0.058985 0.0051085 0.089127 -0.018164 -0.077821 0.0034232 0.13892 0.046106 -0.05417 0.0084399 -0.15362 -0.14735 0.065191 -0.022883 -0.14498 -0.16917 -0.19215 0.10611 0.001678 -0.16331 -0.07307 0.11576 0.083567 -0.060317 -0.064714 0.15305 -0.11949 0.16684 0.14109 0.046036 -0.060393 0.046595 -0.11558 0.044184 -0.023124 0.02586 -0.11653 0.010936 0.089398 -0.0159 0.14866 
. -0.11112 -0.0013859 -0.1778 0.064508 -0.24037 0.031087 -0.030144 -0.36883 -0.043855 0.24831 0.078633 -0.16072 0.10528 -0.09622 -0.077742 -0.28262 -0.13013 0.0056083 0.19406 0.19287 -0.10955 0.23008 -0.19911 0.18836 -0.21861 0.0017505 -0.093017 -0.25064 0.034323 0.17047 -0.094408 0.1442 -0.18533 0.1685 -0.16582 -0.061712 -0.010346 -0.078817 0.20596 -0.12286 -0.064035 -0.040983 -0.21272 0.097636 -0.058569 -0.044869 0.028206 -0.12619 0.012063 -0.19177 -0.044824 -0.081765 -0.073723 0.037251 -0.075625 0.0085609 0.062612 0.22144 -0.10765 0.1617 0.065163 -0.38164 0.40246 -0.40637 -0.15695 -0.026063 0.08266 -0.21487 -0.19077 0.015702 0.0019313 0.028565 -0.11221 -0.32311 -0.11034 -0.0036508 0.098677 0.044877 -0.037888 0.055357 -0.083052 0.1388 -0.014431 0.03675 0.024439 -0.23493 -0.027343 0.079749 0.033782 -0.14431 -0.12995 0.0013884 0.12936 -0.025757 0.14235 -0.039069 0.04441 -0.10727 0.010207 -0.25722 0.0108 0.13833 -0.12007 0.1007 -0.032493 0.039002 -0.22527 -0.0082154 0.089996 0.12834 -0.042059 0.034393 -0.062866 -0.17397 -0.12022 0.10377 0.23975 0.0168 0.013164 0.1788 0.15969 -0.09956 -0.00033453 0.14833 0.0023907 0.012985 0.018713 -0.013954 0.017909 0.18023 -0.061768 0.13785 0.11028 0.06795 -0.093466 0.065266 0.081291 0.074469 -0.14988 0.27212 -0.24042 0.10926 0.18611 0.25639 0.26599 -0.033769 0.035854 0.046225 -0.096937 -0.022181 -0.0093109 -0.17216 -0.0052176 -0.087209 0.16378 -0.1748 0.10675 -0.11914 0.11579 0.28104 0.031467 0.089572 -0.076408 0.091939 0.10972 0.10825 0.044846 -0.10262 0.011195 0.12233 -0.21444 -0.0085801 -0.20019 0.076398 0.069234 -0.00027189 -0.14671 0.0020823 0.10946 -0.026161 -0.03566 -0.20662 -0.017169 0.14491 -0.018133 0.26558 -0.071692 -0.32038 0.090198 0.038957 -0.13264 -0.082944 0.28167 0.095751 -0.21677 0.036769 0.002427 0.073605 -0.34857 -0.023093 -0.082191 -0.10558 0.029198 0.092549 0.26644 -0.1304 -0.14764 0.2099 0.17682 -0.078109 0.15883 -0.12386 -0.036651 -0.035916 -0.080906 -0.052342 -0.043183 -0.15264 -0.12676 0.13355 0.04599 -0.063914 0.12744 -0.1052 -0.12274 0.08151 0.055437 -0.1856 0.10727 0.098527 0.06622 0.22512 -0.19452 -0.058842 0.060798 0.08935 -0.050251 -0.075885 -0.13478 -0.19397 0.00089476 0.24309 -0.042496 0.016901 0.15118 0.037475 0.13201 0.052854 -0.15011 0.025235 0.02491 0.04034 -0.40257 0.03001 0.014418 -0.0089364 0.036583 0.022269 -0.074602 0.10987 0.018079 0.19326 0.038292 0.080146 0.053901 0.13042 0.004338 -0.15412 0.092865 -0.059374 -0.033619 0.044073 0.066178 -0.16668 -0.062453 -0.2339 -0.026025 -0.028359 -0.25575 -0.10586 0.099423 0.15685 -0.12659 -0.22975 0.15002 -0.16253 0.095208 0.30722 0.052365 -0.10963 0.095332 -0.21914 -0.04276 -0.13685 0.09747 -0.21818 -0.058233 0.063374 -0.12161 0.039339 
the -0.065334 -0.093031 -0.017571 0.20007 0.029521 -0.03992 -0.16328 -0.072946 0.089604 0.080907 -0.040032 -0.23624 0.1825 -0.061241 -0.064386 -0.075258 -0.050076 -0.020001 0.003496 0.14487 -0.16791 0.076852 -0.22977 -0.057937 -0.13408 -0.073586 -0.0012575 0.019708 0.056866 0.0625 -0.15555 0.15207 -0.10629 0.2467 -0.027853 -0.17703 0.0072058 -0.11941 0.083843 -0.11843 0.053612 -0.0023144 -0.084279 0.02842 0.078184 -0.12017 -0.040866 0.089438 0.050845 -0.06372 0.070864 -0.063962 -0.095329 0.069848 -0.050254 0.058265 0.085877 0.043966 -0.051179 0.097819 -0.050705 -0.18195 0.32365 -0.076363 0.046492 -0.19886 -0.24429 -0.18651 -0.22465 0.069392 -0.37377 -0.082351 0.061531 -0.13149 -0.075824 -0.060647 0.072747 0.24397 0.021046 -0.071253 0.11115 0.073137 -0.086065 0.11181 -0.0062127 -0.16714 -0.065522 0.083572 -0.092857 -0.12377 -0.082908 0.012025 0.33836 -0.27124 0.054494 -0.088206 0.073294 0.024418 0.0036174 -0.027804 -0.12583 -0.032364 -0.0017323 -0.075066 -0.20324 -0.11735 0.0076592 0.021895 -0.013652 0.064288 -0.0086384 -0.08287 -0.10197 -0.13569 0.085786 -0.0061483 0.15858 0.18609 0.11262 0.090442 0.27457 0.22795 -0.076096 0.21347 0.026208 0.070195 0.12838 0.20542 0.092349 0.12774 -0.17516 0.089942 -0.024982 0.033565 -0.12136 0.059703 -0.060016 0.13908 -0.05639 0.15073 0.095501 0.055378 0.051278 0.037113 0.017116 0.22476 0.046822 0.035514 0.065785 0.094907 0.13325 -0.071157 -0.07789 -0.067566 -0.0713 -0.070124 0.03169 -0.059157 0.14293 0.060211 -0.12124 0.14737 -0.069322 0.084458 0.15567 0.024013 -0.11073 0.075851 0.16277 -0.085473 -0.19668 -0.077685 -0.067194 -0.07725 -0.10461 0.12912 0.0099595 0.24678 -0.0021382 -0.026336 0.045182 0.027762 -0.048843 0.10953 -0.032948 0.24045 0.18437 -0.15205 0.11378 0.04739 -0.0017306 -0.16477 0.19182 0.17582 -0.043354 0.048313 -0.054663 0.026949 -0.17522 0.1202 -0.014748 -0.046279 -0.044321 0.1132 -0.013909 -0.16025 -0.023832 0.011909 0.044407 0.10252 0.2366 0.1022 -0.0089182 -0.053413 0.066031 -0.10562 0.099354 -0.2636 -0.13579 0.029793 -0.0049288 -0.032903 -0.04859 0.14609 -0.033257 0.074076 -0.18396 0.039731 0.00357 -0.029935 0.13167 0.18358 -0.12839 -0.027227 -0.055763 -0.015632 0.018481 -0.096078 0.010891 -0.030878 -0.082804 -0.035578 0.17599 0.044577 0.20949 0.20219 0.11987 -0.12282 0.13082 -0.047396 0.05179 0.24328 0.025997 -0.017327 -0.17035 0.22185 -0.068049 -0.11139 0.033333 -0.12122 0.025779 0.15938 -0.036345 0.0091971 -0.11033 -0.079248 -0.10993 0.085555 0.009754 -0.23608 -0.18619 -0.071835 -0.024813 0.074658 -0.028669 0.031546 0.088931 0.23872 0.168 -0.058967 0.063124 -0.057813 0.019214 0.016109 0.11406 -0.074514 0.051821 0.20783 -0.086803 0.10953 0.064944 -0.21673 -0.037683 0.08186 -0.039891 -0.051334 -0.10165 0.16642 -0.13079 0.035397 
</s> 0.050258 -0.073228 0.43581 0.17483 -0.18546 -0.39921 -0.50767 -0.5066 -0.15557 0.031451 -0.23794 -0.44625 -0.26341 -0.26413 -0.26935 -0.62865 -0.13574 0.0697 0.26568 0.51541 0.15814 0.079607 -0.3292 -0.49749 -0.57232 -0.33162 0.014227 -0.68094 0.19999 0.30894 -0.14691 0.75068 -0.26486 -0.16091 -0.28034 -0.20183 -0.11985 0.22705 -0.045547 -0.15134 -0.011689 -0.27698 -0.2437 -0.15531 0.24802 0.4509 0.28325 0.014937 0.09297 -0.1092 -0.0086647 -0.6663 0.045632 -0.67015 -0.35459 0.32214 0.12842 -0.24621 0.045134 0.16213 -0.42758 0.047525 0.22376 -0.076248 -0.33242 0.32999 0.22151 -0.07364 -0.30562 -0.075884 -0.30567 -0.075288 0.47872 -0.0016653 -0.38415 -0.15147 0.032541 0.10061 -0.22427 -0.089372 -0.09919 0.038547 -0.10372 0.11169 0.097768 -0.12516 0.34805 0.041478 -0.09772 0.12842 0.21191 0.35702 0.016588 0.097898 0.053985 0.10617 0.28678 0.0080181 -0.39085 0.11191 -0.065404 0.25064 0.22351 -0.25068 0.33498 0.14085 0.18437 -0.24563 0.11691 -0.061179 0.13982 -0.061849 -0.63793 0.25816 -0.45235 -0.22747 0.11045 -0.19549 -0.38292 0.12213 0.20989 -0.023781 -0.029434 0.67661 -0.13742 -0.017769 -0.22432 0.036397 -0.30378 0.26628 -0.33948 -0.29191 -0.12385 0.57559 0.44472 0.062263 -0.045536 -0.62385 0.36338 0.41903 -0.3859 -0.081036 0.3288 0.084426 -0.0037573 -0.11293 0.16085 -0.40933 0.2173 0.25528 -0.065366 -0.17348 -0.083693 0.25174 0.75242 -0.53454 0.16996 0.094621 0.12053 0.22422 0.0011159 0.16707 0.51839 -0.1744 0.025452 0.21807 0.45783 -0.46315 0.30251 0.25376 0.02066 -0.27437 -0.23975 0.33155 -0.13735 0.43456 -0.13665 -0.35264 -0.25314 -0.92955 0.11719 -0.14386 0.21486 0.037592 -0.50122 0.41659 -0.057749 -0.2434 0.23677 -0.0018475 0.34872 -0.61496 0.022873 0.32567 -0.83872 -0.16147 -0.17395 0.21363 -0.43727 0.14279 0.26738 -0.046942 0.1363 0.2106 0.50295 -0.014423 0.092695 -0.02267 0.39947 -0.10061 -0.13776 0.20739 0.12981 0.26965 0.14809 -0.22363 -0.028562 -0.35537 0.028521 0.0053468 0.2309 0.16529 -0.062287 0.17005 -0.37884 -0.3614 0.27422 -0.30957 0.52594 -0.42936 0.05008 -0.097497 -0.026312 -0.14241 -0.097804 0.013366 0.13045 -0.24812 -0.035794 -0.058777 -0.064151 0.40489 0.051363 -0.20573 0.10242 -0.075556 -0.18351 0.17996 -0.24141 -0.30461 -0.29783 -0.20861 -0.4629 0.019042 0.23051 -0.1673 0.14045 -0.41304 0.27465 0.11554 0.1011 -0.16508 -0.045205 0.33258 -0.61465 -0.35526 0.057278 -0.18852 -0.15476 0.39045 -0.1298 -0.15306 0.32079 0.30198 0.0018952 -0.11331 -0.52281 0.19551 0.16529 -0.18258 -0.084573 0.13313 0.37051 -0.21161 -0.039851 0.46209 0.073142 -0.06693 -0.021576 0.3622 -0.096853 -0.47723 -0.027511 0.25964 -0.010468 -0.29815 -0.23609 0.20525 0.75183 0.097156 
of 0.048804 -0.28528 0.018557 0.20577 0.060704 0.085446 -0.036267 -0.068373 0.14507 0.17852 0.14579 -0.1363 0.23348 0.029758 -0.22001 -0.0045515 -0.11197 -0.041367 0.084231 0.076673 -0.24461 0.053593 -0.10939 -0.12468 -0.2029 0.074565 0.1066 0.054339 0.088268 0.22557 -0.029081 0.298 -0.16129 0.36419 0.073978 -0.089561 -0.041104 -0.24277 -0.005801 -0.062838 0.061766 -0.06338 0.064886 0.076681 0.054731 -0.12146 -0.10907 -0.092789 0.033569 -0.18984 0.0891 0.013016 -0.051571 0.02804 0.12697 -0.077554 0.15722 0.077476 -0.16343 0.16547 -0.26099 -0.29122 0.30182 -0.16759 -0.056519 -0.12898 -0.19702 -0.15118 -0.13374 -0.15003 -0.23525 -0.15915 0.13042 -0.027344 -0.12427 -0.043631 0.12414 0.34889 0.049437 -0.010112 0.20247 0.082294 -0.15157 -0.22737 0.12064 -0.061304 -0.077713 0.1096 -0.096096 -0.20338 -0.02294 0.15945 0.23325 -0.23107 0.052684 -0.096946 0.057373 0.14143 0.076547 0.018265 0.064091 0.044858 0.088128 -0.11694 -0.2496 -0.13049 -0.083017 -0.060082 0.024055 -0.020748 0.039135 0.043567 -0.10208 -0.15464 0.12892 -0.02419 0.04537 0.12778 0.13212 0.19208 0.24737 0.12406 -0.20246 0.13762 -0.023151 0.041736 -0.013967 0.18194 0.1621 0.062586 -0.079981 0.13184 -0.077388 0.020313 -0.041488 0.020524 -0.1131 0.14639 0.080113 0.03685 0.1364 -0.0097955 0.11779 0.13547 0.2289 0.21231 -0.079779 0.13831 -0.076114 0.028563 0.11441 -0.15455 -0.083267 -0.057167 -0.099352 -0.17063 -0.071757 -0.051497 0.26568 0.018799 -0.2722 0.1268 -0.021045 0.058831 0.30213 -0.035255 -0.095952 -0.039082 0.20369 -0.17869 -0.26188 -0.11006 -0.15694 -0.028803 -0.23872 0.15594 0.0087185 0.24053 0.12139 0.13728 0.015927 -0.013386 -0.069045 0.10303 -0.072071 0.27962 0.19157 -0.1381 0.071393 -0.031548 -0.035299 -0.074609 0.20415 0.07185 -0.068672 -0.041217 -0.087057 -0.11665 -0.20257 0.073188 -0.073497 -0.27951 -0.17393 0.064005 -0.050394 -0.044426 0.0084868 0.065147 0.075381 0.11124 0.24971 0.16696 0.040472 -0.14533 0.016763 -0.11273 0.017435 -0.19177 -0.044961 0.085638 0.079341 -0.046213 -0.20255 0.26274 -0.091053 0.077721 -0.15454 0.042321 0.11742 -0.086041 0.087611 0.21365 -0.13597 -0.029987 -0.021053 0.026222 -0.063741 -0.083649 0.016566 0.043541 -0.039012 -0.0099747 0.13427 0.063209 0.22825 0.14844 0.032926 -0.19012 0.19838 -0.22369 0.00018847 0.17405 -0.037903 0.020661 -0.084053 0.18419 0.028517 -0.098006 0.19939 0.07981 0.1241 0.09525 -0.035341 0.08413 -0.082303 -0.075792 0.16535 0.11581 0.013019 -0.080894 -0.0104 -0.078736 -0.11122 0.028996 -0.06331 -0.03393 0.020572 0.26452 0.0017304 0.019002 0.14132 -0.07911 0.15356 0.072873 0.087168 -0.005553 -0.020073 0.15022 -0.015351 0.16743 0.16956 -0.33677 -0.060286 0.086097 -0.065001 0.0048331 -0.10096 0.1391 -0.13714 -0.039705 
- -0.12278 -0.036748 0.20728 -0.018277 -0.0016348 0.023735 -0.03712 -0.28608 -0.19088 -0.068688 0.061755 -0.052416 0.16867 -0.1108 -0.11308 -0.27392 -0.30827 0.18204 0.096594 0.29725 -0.050727 0.023406 -0.33813 -0.10599 -0.11249 0.066722 0.14842 -0.31099 -0.09372 0.0027705 -0.16806 0.20955 -0.23591 0.070785 -0.25399 -0.1121 -0.12584 -0.11348 -0.13821 -0.37261 0.1712 0.091039 0.12721 0.033067 -0.033074 0.03804 -0.18015 0.043457 0.099211 0.037043 -0.0035936 -0.35885 -0.1046 -0.24532 0.12304 0.11229 0.0019709 0.16426 0.051579 0.081311 -0.0034787 -0.17466 0.30059 -0.23183 -0.017487 0.28647 0.39977 0.10196 -0.31603 -0.080053 0.1363 -0.27921 -0.070414 -0.42057 0.22811 -0.0048721 0.28294 0.13337 -0.13565 0.36156 -0.21077 0.0951 -0.078161 -0.19526 0.12015 -0.34326 0.091878 -0.1481 0.15075 -0.032191 -0.084192 0.012534 -0.27388 -0.03702 0.057868 -0.077148 0.089935 -0.0085872 -0.17457 -0.019762 0.053098 0.17929 0.095319 0.01531 0.30705 -0.10108 -0.32163 -0.030811 -0.12402 0.097465 0.17987 0.14868 -0.15284 -0.09303 0.0088417 -0.19254 -0.01618 -0.23722 -0.012689 0.080786 0.1699 -0.32962 0.21784 0.22417 -0.11523 -0.1468 0.16493 -0.013706 0.061769 0.24206 -0.0030724 0.13193 0.33641 0.082406 -0.090267 -0.062518 0.20536 -0.0067834 0.23309 0.42543 0.12784 0.043186 0.31441 0.29966 0.3764 0.11003 0.078855 0.070249 -0.1237 -0.16134 0.096781 -0.26828 -0.34072 -0.2443 0.23486 0.0035705 0.022555 -0.11751 0.21934 0.1186 -0.19583 -0.013163 -0.1533 0.059138 0.36918 -0.066211 -0.12353 -0.18454 0.075356 0.054704 -0.21953 0.053431 -0.024889 0.26166 0.23565 -0.041392 0.067851 -0.096325 0.37606 -0.057649 0.02432 0.056076 -0.23126 0.23585 0.16382 0.53816 -0.13254 -0.59859 0.045303 0.18787 -0.055629 -0.263 0.21436 -0.16295 -0.10764 -0.059118 0.016773 0.014789 -0.13096 -0.10807 -0.096707 0.13387 -0.18756 -0.014248 0.095107 -0.10209 -0.16448 -0.094758 0.14591 0.16369 0.20648 -0.073274 -0.056667 -0.053844 -0.16913 0.015068 0.19947 -0.17929 -0.52126 0.2772 -0.23779 0.19949 -0.20515 -0.19561 -0.30977 -0.066952 0.067665 0.11951 0.15856 0.18632 0.1467 0.1089 -0.086139 -0.036918 0.034145 0.11727 -0.0038274 -0.019283 -0.13522 -0.17907 0.12257 0.010163 -0.070272 -0.019652 0.35313 -0.028667 0.25019 0.24459 -0.24002 0.15758 -0.0019125 0.005391 -0.21876 0.17596 -0.079358 -0.081188 0.020766 0.08006 -0.020661 0.092431 -0.033553 0.23134 0.0011203 0.17548 -0.3203 0.14953 -0.082272 -0.16887 0.2853 -0.27014 -0.34351 0.14424 0.16748 -0.31432 -0.31462 -0.05592 0.053108 -0.0015233 -0.067186 -0.088541 0.021988 0.29623 -0.17202 -0.13207 0.10663 0.13491 0.29138 0.15629 -0.08598 0.090109 0.14234 -0.16496 0.35746 0.10796 0.03212 0.012067 0.018267 -0.06944 0.28509 0.06188 
in 0.12367 -0.13965 0.044877 0.18919 -0.10997 -0.0064458 0.050499 -0.20439 -0.015761 0.15049 0.13774 -0.068241 0.17078 -0.13529 -0.18324 -0.00035567 -0.099566 -0.14549 0.067183 0.028273 -0.10084 0.10498 -0.24613 0.008831 -0.18437 0.050011 -0.032839 -0.069129 0.0043659 0.11011 -0.32272 0.26625 -0.12465 0.32157 0.067982 -0.22671 0.081843 0.11435 0.062067 -0.072973 -0.013415 -0.048493 -0.11426 0.069743 -0.070937 -0.062886 -0.015692 -0.033663 0.10441 0.0050113 -0.0017716 0.01172 -0.086168 0.012221 -0.14817 0.035373 0.039869 0.29904 0.02467 0.18096 0.070858 -0.3536 0.090518 -0.12905 -0.010443 -0.18697 -0.21258 -0.044644 -0.25333 0.10031 -0.17369 -0.037354 -0.030931 -0.091972 -0.068233 0.022366 0.12569 0.13749 -0.079547 0.0071489 -0.15117 0.27538 0.13964 0.0088001 -0.0032892 -0.21313 -0.060543 -0.12321 -0.14875 -0.22362 -0.21024 -0.088803 0.29222 -0.25967 0.22331 -0.045337 -0.03181 0.20282 -0.072763 0.08423 -0.13619 -0.065391 0.045686 0.13292 -0.16045 0.068327 -0.085854 0.1138 -0.037301 0.1485 0.11429 0.075152 -0.082689 -0.1272 -0.025567 0.0070075 0.26045 -0.065811 0.032715 0.19796 0.16154 0.04616 -0.1811 0.2221 -0.097602 -0.16946 0.14142 0.099035 0.15536 0.19277 -0.077073 0.1304 0.078304 0.073262 -0.14858 0.154 -0.10688 0.055093 0.0086387 0.19326 -0.026862 0.26057 0.052728 -0.11463 0.17869 0.39083 0.25172 0.1414 -0.066381 0.09811 -0.12604 -0.053404 -0.12783 0.015113 -0.15912 -0.19647 0.17831 0.01199 0.079011 0.038148 -0.1492 0.37324 -0.26121 0.12813 0.12836 0.053578 -0.076507 0.076671 0.13526 -0.0133 -0.16123 -0.10848 -0.025315 -0.17731 0.076161 -0.060174 0.14036 0.23606 0.013044 -0.0038421 0.18789 -0.088722 0.032518 0.22781 -0.023559 0.084643 0.12242 0.0088557 0.076508 -0.0050585 -0.099194 -0.067806 0.059907 0.035404 0.018719 -0.026816 -0.0043838 0.082026 -0.11986 -0.20797 0.1857 -0.093772 -0.016299 0.16044 0.033307 -0.15447 -0.1299 0.12446 0.10375 0.15186 0.17916 -0.0392 -0.17544 0.011754 -0.083566 -0.0018136 0.12672 -0.20117 -0.16977 -0.14783 0.044156 -0.17907 -0.046772 -0.0019811 -0.037412 0.001387 -0.10561 -0.15427 0.14016 0.041157 0.19222 0.012073 -0.066753 -0.025257 -0.15648 0.024427 -0.018674 -0.16705 -0.05062 -0.075287 0.043062 0.0061818 0.10573 -0.0029119 0.071643 0.13324 0.24889 -0.012998 -0.077142 0.1755 0.16971 -0.034875 0.084939 -0.19587 -0.26115 -0.052924 -0.23034 -0.13479 0.13933 0.041106 0.045816 0.11113 -0.0703 0.012925 0.13977 -0.063616 0.043891 0.027855 -0.03961 -0.095799 -0.12588 -0.084711 -0.0042531 -0.059085 -0.093324 -0.33958 0.063525 0.082276 0.062395 -0.099955 0.014326 0.042645 0.080227 0.089646 0.1758 0.034153 0.00055167 0.11687 -0.089006 -0.0084893 0.025115 -0.31804 0.12533 -0.081507 -0.1114 0.017582 -0.037359 0.06474 -0.14581 0.16175 
and -0.031533 0.046278 -0.12534 0.19165 -0.1266 -0.012853 0.10342 -0.0098085 0.15189 0.27582 0.13695 0.0088799 0.14132 -0.12 -0.063439 -0.15178 0.09809 -0.1201 -0.069086 0.014666 -0.023041 0.03043 -0.12664 -0.063282 -0.082246 0.036718 0.22698 -0.096025 -0.011699 0.066158 -0.18542 0.19223 -0.061685 0.27049 0.075116 -0.054928 -0.086027 -0.19387 0.14677 -0.06013 0.068269 0.071613 -0.094414 0.036158 0.002782 -0.081711 -0.013369 -0.053017 0.052227 -0.079682 -0.00031768 0.030397 -0.16847 0.021828 -0.19577 -0.050109 -0.0096879 0.085536 -0.28135 0.17001 -0.049194 -0.16721 0.19018 -0.0474 -0.00036412 0.026316 -0.22135 -0.061583 -0.21854 -0.021669 -0.2963 -0.071949 0.010638 -0.19055 -0.11292 -0.099072 0.19357 0.14115 0.068346 -0.00045947 0.072621 -0.021192 -0.1242 -0.041933 -0.028386 0.049083 -0.073574 0.073525 0.088135 -0.032184 0.029903 -0.070025 0.15323 -0.17236 0.073502 0.13232 0.090191 0.0079023 -0.027887 -0.046971 0.039198 -0.12567 0.19803 -0.075995 -0.21353 0.031964 -0.17346 0.055884 -0.055404 -0.0083924 -0.024104 0.0023894 -0.1057 -0.10604 -0.061323 -0.041473 0.0060497 0.055896 -0.071338 0.1375 0.094781 0.048121 -0.071236 0.26263 0.07257 -0.00020344 0.1864 0.066703 0.055229 0.11258 0.047647 0.085482 -0.14489 0.0098078 0.082585 0.039254 -0.10044 0.16532 -0.030841 0.10315 -0.046584 0.11211 0.15416 -0.050309 0.14853 0.2287 -0.056036 -0.072966 0.0018167 -0.015694 -0.06022 -0.19044 -0.075073 -0.0032815 -0.079256 -0.078324 -0.11073 -0.093705 0.26284 0.01034 -0.095 0.17295 -0.053949 0.15056 0.22815 -0.16589 -0.080074 -0.076248 0.13423 -0.093626 -0.065384 -0.014181 -0.067937 -0.038283 -0.084514 0.11082 0.068804 0.19402 -0.069373 -0.043398 0.15402 -0.10172 0.049785 -0.010005 -0.03371 0.29018 0.025405 -0.094919 0.093876 -0.055423 -0.059419 -0.082542 0.094048 0.059422 -0.032564 -0.0062017 -0.0095274 0.092439 -0.16995 0.00038904 0.19187 -0.025048 -0.11844 0.027879 -0.034024 -0.046866 -0.09009 -0.034417 0.25534 0.096778 0.20841 0.029693 -0.015943 -0.035779 0.0021559 0.080246 -0.031355 -0.22676 -0.11579 -0.059579 -0.07442 -0.12871 -0.10199 0.064969 -0.070388 -0.040131 -0.1474 -0.098839 0.11614 0.15871 0.0693 0.031897 -0.028738 -0.084634 -0.14864 0.11398 0.072688 -0.065752 -0.013296 0.085164 0.025053 0.016867 -0.045257 -0.042925 0.12329 0.13012 -0.01532 -0.13943 0.089764 0.082172 -0.081918 -0.011688 -0.11742 0.029242 -0.065814 0.029959 -0.010941 -0.0183 0.05718 0.068436 0.0072271 0.0057584 0.071466 -0.083164 -0.01501 -0.07806 0.0033293 0.099132 0.061188 -0.097815 -0.14008 -0.0026304 0.0022269 0.083496 -0.14334 -0.037447 0.061564 0.21536 -0.036836 0.038629 0.13031 0.045944 0.027701 0.061679 0.062921 0.068453 -0.026292 0.17342 -0.14421 -0.013124 0.15494 -0.10786 0.18314 0.13881 0.02757 -0.035073 -0.017829 0.11163 -0.058231 0.011977 
' -0.17489 -0.13695 0.13345 -0.07282 0.038794 0.13294 0.0015304 -0.071056 -0.20026 -0.045437 -0.0019054 -0.17913 0.18241 -0.058909 -0.0088248 0.060522 0.1872 0.2255 -0.11638 0.080349 -0.33614 -0.035788 -0.21518 -0.062891 -0.1322 -0.09628 0.065516 0.16418 -0.014492 0.11139 -0.25025 0.25303 -0.20538 -0.027447 -0.18057 -0.13118 -0.36836 0.055097 0.23968 -0.17034 0.26393 0.30392 -0.18615 0.13712 -0.012511 0.11977 0.00017869 0.059385 -0.05704 -0.046391 0.012484 -0.067036 0.20004 -0.34513 -0.16117 -0.082885 -0.043013 0.031685 -0.01498 0.11803 0.068215 -0.18596 0.11503 -0.020593 -0.15533 0.031101 0.1294 0.038285 -0.075081 -0.095411 0.13559 -0.13448 -0.092657 -0.39257 -0.1617 -0.06562 0.069601 0.26207 -0.039711 0.39187 0.16218 0.053275 -0.066056 0.10139 -0.076679 -0.059841 -0.069376 0.21551 -0.029553 -0.123 0.011586 0.16999 0.17508 0.090918 0.10799 0.085566 -0.0042548 0.097031 0.18012 -0.24137 -0.1599 0.018539 -0.1056 -0.052341 -0.034019 -0.13327 -0.15889 0.033714 0.079085 -0.01673 0.062222 0.16459 -0.021192 0.014571 -0.017858 0.17836 0.13005 0.27747 0.056348 0.13513 0.4205 0.024011 0.18547 0.030009 0.119 -0.058 -0.092228 0.025134 0.003047 -0.024764 0.11025 0.21792 0.12071 0.26308 0.13265 0.058854 -0.36855 -0.04149 0.10599 0.25175 -0.028787 -0.043812 -0.036435 0.0089733 0.066932 0.1702 0.1665 0.094226 -0.14053 -0.18362 -0.035076 0.11685 -0.08793 -0.17653 -0.24763 0.12285 0.0053936 -0.048667 0.23958 0.17958 -0.21611 0.08723 -0.17605 0.17473 0.14182 0.081131 -0.087419 0.071543 0.21449 -0.061005 -0.07196 -0.23685 -0.11879 -0.0071595 -0.071583 0.049396 -0.02676 0.068993 0.0073673 -0.038216 0.16864 0.16553 0.01517 0.15875 -0.1054 0.05747 0.13809 -0.019921 0.36033 0.21684 0.063086 -0.11092 0.35303 0.30894 0.12569 -0.008461 0.25211 -0.073476 -0.442 0.022188 -0.0423 -0.018912 -0.15181 0.19475 0.043222 -0.23028 -0.25009 0.011266 0.14797 0.22005 0.40872 -0.13427 -0.18417 0.011872 -0.1966 -0.18597 0.13815 -0.22767 -0.17908 0.10512 -0.057826 0.071071 -0.23812 -0.0067891 0.036996 -0.029889 -0.17022 0.14456 0.040532 -0.029142 -0.012301 0.2311 -0.14316 -0.22666 -0.19614 0.15429 -0.023078 0.015926 -0.077029 0.065054 -0.30557 0.13245 0.068753 0.11286 0.14658 0.2298 0.18136 0.22165 0.1076 0.0045102 0.1825 0.10714 0.027691 0.13585 0.07148 0.033098 0.030476 -0.13848 0.23759 -0.26323 0.095756 0.15745 0.099187 0.013283 -0.030978 0.10267 0.030753 0.22487 -0.014633 -0.16486 -0.30891 0.0551 -0.15767 -0.11141 0.034447 -0.054475 0.33544 -0.0042994 0.27241 -0.15068 0.096341 0.14226 0.097858 0.00082821 -0.0092396 0.10388 0.18306 0.39652 0.21525 -0.01238 -0.040262 -0.1476 -0.0018151 -0.040134 -0.17208 -0.225 -0.18652 0.13567 0.20318 0.10497 
) -0.2126 -0.1625 0.19291 -0.025168 -0.053647 -0.060966 0.045574 -0.21204 -0.12945 0.16739 -0.091312 -0.18321 0.24384 -0.18695 0.1443 0.059095 -0.14303 -0.037694 -0.035785 0.11922 -0.011128 0.21314 -0.27044 0.077567 -0.018137 0.1594 -0.043637 -0.25154 0.069122 0.023117 -0.30039 0.28047 -0.20755 0.1845 0.02708 -0.011796 -0.19094 -0.22944 0.15557 -0.28047 0.033552 0.13621 -0.16158 0.020503 -0.10356 -0.21584 -0.1115 -0.056023 0.10392 -0.023046 0.033985 -0.26918 -0.03143 -0.26883 -0.098116 -0.17722 0.080194 -0.044145 -0.064201 0.21535 0.16698 -0.25132 0.21311 -0.16862 0.084063 -0.066586 0.16939 -0.27313 -0.2829 0.027755 0.051774 0.056767 0.023735 -0.19652 0.12754 -0.015561 0.26425 0.27562 0.086458 0.38182 -0.14553 0.20525 -0.024237 0.054286 0.25675 -0.17819 0.074283 0.044713 0.088217 -0.033261 0.19087 -0.19817 0.034355 -0.085662 -0.0048418 -0.056916 -0.1033 0.006265 0.17492 0.027866 0.084206 0.0674 -0.21523 0.041361 0.17755 -0.022406 -0.1821 -0.011688 0.15014 -0.16614 0.077185 -0.016522 -0.19297 -0.13536 -0.062133 0.07223 0.059149 0.0010406 -0.16859 0.078426 0.34513 -0.12174 -0.1464 0.28904 0.010986 0.096763 -0.048568 0.2518 0.12331 0.06257 0.15267 0.17711 0.25384 0.3384 0.092287 0.00019422 0.093004 -0.1721 0.10527 0.19721 0.070042 0.10979 0.14692 0.093588 0.13641 0.22856 0.22282 0.089212 -0.069749 0.080828 -0.1607 0.063175 -0.1026 -0.14976 0.064174 -0.0093489 0.22512 0.17281 0.19723 0.19006 0.058608 0.13837 -0.27155 0.12318 0.014049 -0.10999 0.08605 0.063453 -0.014096 0.073693 -0.19318 0.073913 -0.14857 0.075652 -0.034264 0.063866 0.029645 -0.1415 -0.064215 -0.064351 0.082878 -0.21816 0.15486 0.22435 -0.10632 0.35149 0.020847 -0.11029 0.085623 0.013362 -0.013515 -0.25033 0.30575 0.12325 -0.24006 -0.22024 0.1085 0.15251 -0.46239 -0.023871 -0.0187 -0.27595 -0.22326 0.063294 0.066861 0.0054138 -0.21897 0.12192 0.25844 -0.11957 0.30079 -0.086595 0.07059 -0.02802 -0.2091 -0.11872 0.13817 -0.10185 -0.35833 -0.22782 0.0063531 -0.039577 -0.051306 0.015049 -0.0093668 -0.045136 0.0060684 0.076519 0.24035 0.070766 -0.026567 0.16117 -0.010365 -0.21722 -0.15059 0.030043 -0.061588 -0.18267 -0.054825 -0.12734 -0.070047 0.36237 0.054465 0.041087 0.092893 0.015996 0.16168 0.16533 0.03856 0.14239 0.13336 -0.18878 -0.12308 0.1819 -0.050355 -0.13599 0.01481 0.10454 -0.10483 -0.16066 0.16406 0.0059985 -0.045827 0.097182 -0.012632 0.26425 -0.01622 -0.11908 -0.085307 0.037455 -0.1698 0.0064602 0.064675 -0.069502 -0.13218 -0.047747 0.14874 -0.040672 -0.016932 -0.15343 0.058897 0.17917 -0.098042 -0.022264 0.133 0.034409 0.39194 0.078925 0.33269 0.18809 -0.19698 -0.15207 0.11303 0.095242 -0.012663 -0.16269 -0.007411 0.13281 0.13515 0.27486 
( -0.23309 -0.15296 0.18574 -0.052825 -0.024827 -0.05597 0.051828 -0.21042 -0.10736 0.1481 -0.073067 -0.18498 0.24592 -0.16441 0.12237 0.046963 -0.10949 -0.022478 -0.0447 0.13849 -0.053463 0.20186 -0.2108 0.10247 0.017499 0.17167 -0.002015 -0.26022 0.038803 0.014472 -0.27706 0.31515 -0.21957 0.20444 0.030268 -0.045881 -0.2279 -0.21473 0.23163 -0.2868 0.030923 0.14941 -0.14564 0.022334 -0.12018 -0.22059 -0.10883 -0.062123 0.11207 -0.035432 0.03905 -0.30039 -0.024871 -0.29661 -0.071842 -0.17986 0.083709 -0.047429 -0.10833 0.21972 0.15335 -0.29379 0.16957 -0.16255 0.045921 -0.07833 0.18348 -0.24966 -0.29057 0.011203 0.010288 0.052393 0.0096249 -0.18478 0.13012 -0.011579 0.25199 0.2378 0.09148 0.40134 -0.14071 0.20658 -0.061358 0.069975 0.2856 -0.19824 0.0567 0.021811 0.058719 -0.022546 0.14477 -0.15554 0.053924 -0.072887 0.016839 -0.074752 -0.11665 -0.037688 0.19177 -0.020931 0.071214 0.060542 -0.23209 0.0155 0.18033 -0.044522 -0.17467 -0.0012956 0.17471 -0.16881 0.062072 -0.036062 -0.18079 -0.14591 -0.011288 0.13394 0.021847 -0.0023774 -0.17014 0.065934 0.35347 -0.10659 -0.13757 0.2813 0.017342 0.14848 -0.070759 0.28449 0.1472 0.035648 0.14415 0.14304 0.23559 0.32984 0.1171 -0.044802 0.045307 -0.11628 0.088198 0.18592 0.024245 0.13704 0.11964 0.13648 0.13993 0.22819 0.20639 0.12183 -0.10479 0.040495 -0.20939 0.062136 -0.075468 -0.14227 0.069215 0.0011967 0.18513 0.13571 0.18718 0.17761 0.045758 0.095972 -0.27707 0.068867 -0.020278 -0.094161 0.062102 0.069499 -0.072098 0.063163 -0.21225 0.085972 -0.15251 0.05548 -0.027419 0.10628 0.01283 -0.14169 -0.057287 -0.073863 0.056337 -0.21388 0.17499 0.17013 -0.093788 0.32699 0.046617 -0.11163 0.13034 0.043024 -0.0059465 -0.2548 0.28502 0.12449 -0.21813 -0.20569 0.10454 0.1004 -0.42906 -0.007037 -0.018476 -0.31813 -0.21764 0.047122 0.027254 0.0017014 -0.23509 0.14708 0.29648 -0.10767 0.33138 -0.078287 0.089908 -0.088922 -0.21133 -0.094596 0.13933 -0.089867 -0.34324 -0.19651 0.0059196 -0.025083 -0.090159 0.023366 -0.018513 -0.071158 -0.0064573 0.083286 0.21143 0.035236 -0.037667 0.17583 0.010726 -0.25549 -0.14307 0.013955 -0.071004 -0.15664 -0.098823 -0.11756 -0.046788 0.3264 0.050847 0.041035 0.098737 0.049633 0.17132 0.13964 0.067877 0.14413 0.16669 -0.14594 -0.1377 0.1902 -0.050886 -0.14369 0.0096079 0.098092 -0.098844 -0.1428 0.1805 0.026372 -0.029204 0.085949 -0.036377 0.26778 -0.025757 -0.10396 -0.047153 0.020454 -0.19168 -0.014001 0.062676 -0.091414 -0.095178 -0.06614 0.13276 -0.014844 -0.0089356 -0.1552 0.063869 0.1804 -0.099814 0.033382 0.18021 0.072454 0.37026 0.056646 0.33106 0.19567 -0.19433 -0.16877 0.11429 0.10103 -0.0087225 -0.16495 0.016876 0.099402 0.18834 0.26413 
to -0.21341 0.15353 0.05288 -0.10995 -0.075249 -0.0040931 0.037307 -0.12307 -0.16539 0.18948 0.018882 -0.037826 -0.032465 -0.00097399 0.10223 -0.090187 -0.15477 0.092984 -0.034548 0.11354 0.10526 0.23558 -0.18151 -0.057149 -0.33498 -0.09525 -0.043807 -0.11598 0.093461 0.14055 -0.23846 0.22991 -0.43074 0.17527 -0.095848 -0.16689 -0.12666 -0.33239 -0.029917 -0.044658 0.068506 -0.14732 -0.19448 0.081522 0.095537 0.13374 0.22849 0.071417 0.075921 -0.012085 0.11477 -0.24506 0.088227 -0.12577 -0.28356 0.23966 0.1349 -0.043612 -0.058942 -0.14964 0.048619 -0.25521 0.35135 -0.010485 -0.012291 -0.228 -0.24907 0.17066 -0.22779 0.12321 -0.23268 0.068668 0.062476 -0.28448 -0.058069 -0.02294 0.32555 0.14967 0.039717 0.12684 0.062978 -0.01068 -0.11597 -0.16 0.075278 0.0643 -0.019621 0.1161 -0.045974 -0.13481 -0.040836 -0.052048 0.26106 -0.41484 -0.011617 0.079744 0.026266 0.00090593 -0.017469 -0.14069 0.18253 -0.085152 0.082151 -0.14794 0.031756 -0.043832 -0.089463 -0.025928 0.064068 0.1158 0.063466 -0.10519 0.030217 -0.12547 -0.18348 -0.18148 0.16018 -0.066333 -0.056771 0.068108 -0.045265 0.021353 -0.082332 0.29351 0.22133 -0.14231 0.068658 0.060024 -0.079182 0.27073 -0.036687 -0.0074472 0.028575 -0.002216 0.012085 0.26404 0.020489 0.038974 -0.19869 0.065939 -0.11451 0.15766 0.15876 -0.10153 0.15162 0.26821 0.23388 -0.11493 0.098095 0.053563 -0.10113 0.05531 -0.20974 -0.035791 -0.14873 -0.20049 -0.022756 0.057507 0.20447 -0.18627 -0.21503 -0.0044905 -0.28856 0.031048 0.16272 0.067949 -0.15246 -0.019164 0.31189 -0.010774 -0.25956 0.016564 -0.035822 0.077274 -0.10028 0.31529 0.032038 0.25298 -0.1769 -0.14586 0.090035 -0.059671 0.1124 0.3027 -0.079148 0.21147 -0.0021538 -0.023762 0.24101 -0.022107 -0.14914 -0.17478 0.19457 0.11478 -0.056655 0.16902 -0.10203 0.092118 -0.029558 0.053092 0.095661 -0.11535 0.025039 0.11723 -0.12198 -0.13359 -0.20374 0.056916 0.019352 -0.00010443 0.13141 -0.11953 0.032819 0.14745 0.048164 -0.13463 0.10255 -0.090965 0.12527 0.10708 -0.1684 -0.12506 0.14798 0.047775 0.027096 -0.022445 0.064138 -0.17978 -0.19269 -0.017962 0.33083 0.12766 0.10295 0.13917 -0.24834 0.14435 -0.12073 0.11765 -0.086994 -0.0035333 0.1392 0.12856 0.062702 -0.046897 0.0059045 0.23477 0.10548 0.017885 -0.041222 0.078198 0.1512 -0.071557 0.064352 0.02891 -0.010313 -0.21598 -0.18317 -0.0098099 -0.094472 -0.20104 0.039202 0.094147 0.046894 -0.036062 -0.072277 -0.11157 -0.1067 0.1109 -0.022301 -0.070209 -0.070016 -0.25438 0.10335 0.056638 0.024858 0.012796 0.077072 0.10816 -0.051854 -0.056149 -0.0028173 0.0060163 -0.11311 -0.060675 0.13326 -0.015193 -0.031639 0.13717 -0.055809 0.060995 0.027739 0.020689 0.0078359 0.18155 0.29327 -0.2153 -0.24152 -0.025937 -0.072507 0.14989 
a 0.11559 0.30192 -0.11465 0.01001 -0.032187 -0.10755 0.060674 -0.10477 0.17488 0.0081116 -0.02263 0.065401 0.1133 0.054737 -0.06209 -0.029822 -0.16608 0.12224 0.045251 0.2134 0.027965 -0.031319 -0.25392 -0.20146 -0.19688 -0.015251 -0.27038 0.10511 0.074226 0.01554 -0.014038 0.16516 -0.17375 -0.016743 0.013919 0.01119 -0.12599 -0.11975 0.079578 -0.037088 -0.071665 -0.085153 -0.1117 0.020142 -0.161 0.0019132 0.13843 0.15445 -0.026397 -0.014582 0.00060368 -0.19382 0.11267 0.035035 -0.014103 0.11427 -0.093813 -0.048103 -0.0057412 0.18635 -0.13767 -0.25908 0.21259 -0.18934 -0.0666 -0.36531 -0.3073 -0.05415 -0.017772 0.053708 -0.2085 0.043945 0.011802 -0.043432 0.056697 -0.087127 0.049667 -0.0098114 0.098693 0.044723 0.090933 -0.088065 0.057724 -0.19914 0.12831 -0.07628 -0.11602 -0.043127 -0.27085 -0.0964 0.046104 -0.057634 0.12419 -0.094156 0.088391 0.015803 0.057685 0.1791 -0.16668 -0.0055587 -0.28134 -0.012136 0.13262 0.15771 0.023281 0.049928 -0.1379 0.17804 0.032105 -0.0090514 -0.15264 -0.058656 -0.087721 0.028901 -0.041666 -0.30451 0.2219 -0.00363 0.077197 0.12785 0.12945 0.073578 -0.027118 0.36309 0.026545 -0.060575 0.016652 0.052824 -0.039201 0.10092 -0.060684 0.13919 0.075804 0.042375 -0.13606 -0.093351 -0.070637 -0.071629 0.15919 0.12709 -0.053596 0.10054 0.14635 -0.028849 0.12329 0.31595 -0.074747 -0.013792 -0.081995 -0.08413 -0.098656 0.040794 -0.14104 -0.19548 -0.12146 0.017467 0.21902 0.031789 0.16661 0.033612 -0.26427 0.2818 -0.21657 0.071942 0.31303 -0.043565 0.081923 0.027802 0.12997 -0.22937 -0.25916 -0.028432 -0.074796 -0.20992 -0.073081 0.025689 0.10352 0.16966 -0.052541 -0.049782 0.10966 0.20609 -0.033784 0.21358 -0.096748 0.17156 0.16477 -0.14704 0.030289 0.055128 -0.044506 -0.39971 0.39786 0.35765 0.050157 -0.165 0.15778 -0.029775 -0.16378 -0.074734 0.13908 0.078804 -0.07814 0.1788 -0.20376 -0.26927 -0.16764 0.13233 0.07399 -0.022863 0.19895 0.036038 -0.090789 -0.0098625 0.051642 -0.23021 -0.10299 -0.25354 -0.25051 -0.075135 -0.17881 -0.0019653 -0.080002 0.21553 0.15182 -0.020711 -0.12492 0.11649 0.01981 0.073403 0.15539 0.026995 -0.11933 -0.030677 -0.16556 0.092261 0.0049417 -0.073793 -0.055393 -0.082741 -0.13011 0.013525 0.018191 -0.0055438 0.058809 0.16387 0.15175 0.0069439 0.038183 -0.061297 0.045698 -0.025712 0.0091615 0.021573 -0.060742 0.10785 -0.088319 -0.12451 0.17643 -0.069255 -0.055677 0.2055 0.15244 0.016753 -0.15624 0.039461 0.078458 0.089246 0.023802 -0.25402 -0.22407 0.079226 -0.1489 -0.0013105 -0.2294 -0.12029 0.17867 0.071291 0.12154 -0.11576 0.13246 0.014544 0.043274 -0.076181 0.044143 -0.14924 0.10415 0.21987 -0.089499 -0.0071804 -0.020257 -0.18694 -0.065594 -0.20223 -0.12218 -0.29798 0.034272 0.11048 0.13074 0.041164 
is 0.035927 0.14517 0.11926 0.078836 -0.047748 0.10096 0.090815 -0.22176 -0.095085 -0.02261 0.0076501 0.04377 0.051051 -0.097378 -0.037446 0.045309 0.00087634 -0.12497 0.029659 0.069825 -0.16091 0.1742 -0.32899 -0.1829 -0.0065372 0.058934 0.019552 0.19681 -0.14456 0.085745 -0.071958 0.37732 -0.34039 0.027648 0.012375 -0.15959 -0.14646 0.16194 0.092523 -0.087637 -0.059375 -0.010355 -0.074173 0.056924 -0.10949 0.28542 0.19264 0.010483 -0.05483 -0.030501 0.068125 -0.049188 0.11643 -0.1018 0.10541 0.096377 0.30352 0.098904 0.16109 0.15746 0.085867 -0.1266 0.086606 -0.012517 -0.060086 0.058047 -0.19545 0.029768 0.1353 -0.054936 -0.09761 0.041602 0.19329 -0.071273 -0.4064 -0.075163 0.037473 0.24462 0.068334 -0.082493 -0.046809 0.12907 0.085082 -0.26625 -0.089977 -0.18727 -0.19797 0.12161 -0.12957 -0.074638 0.26606 0.21286 0.13707 -0.22089 0.061054 -0.25247 0.12172 0.17021 0.14249 -0.059753 -0.22905 0.069484 0.075391 0.054459 0.025777 -0.079382 -0.23297 -0.056315 0.085659 -0.13863 0.010848 0.11964 -0.29033 0.056997 0.10546 -0.09129 0.15602 0.16682 0.19723 0.068381 0.25218 0.12906 -0.11976 0.36511 0.04613 0.14922 0.11582 0.15174 0.066293 0.041363 -0.11032 0.034476 0.087089 0.067598 0.020334 -0.0807 0.11125 0.079644 0.1182 0.14276 -0.16239 0.048049 0.20329 -0.1865 0.068342 0.11872 -0.21844 0.080969 0.11576 -0.086196 0.016645 -0.07335 -0.017962 -0.036097 -0.013199 -0.079475 0.11069 -0.045565 0.53583 -0.011069 0.081706 0.17232 -0.2441 -0.040374 0.32503 -0.0045183 -0.023625 -0.13361 0.11442 0.13294 -0.13098 -0.2013 -0.084633 0.055785 0.024583 -0.031059 0.17107 0.016382 -0.007079 -0.038921 -0.041218 0.13561 0.045142 0.39547 0.084596 0.1296 0.074092 0.050129 0.13505 -0.069099 0.0042038 -0.19653 0.052232 0.21959 0.076529 -0.13691 -0.090079 0.039593 -0.19713 0.088612 0.052963 -0.15249 -0.34548 0.074472 -0.27969 -0.074521 -0.21438 0.14577 0.18846 -0.12055 0.19297 0.089923 0.11085 0.23914 -0.058177 -0.15256 -0.049997 -0.29806 -0.16428 -0.053028 0.057367 -0.12154 -0.2741 -0.12438 0.30366 0.0038798 -0.11727 0.30079 -0.014037 0.0051858 0.014408 0.056017 -0.24088 0.03485 -0.1719 -0.042362 -0.17468 -0.23828 -0.018515 -0.015014 -0.21179 0.16822 0.12561 -0.11843 0.29393 0.30496 0.36829 -0.0016441 0.13448 -0.17843 -0.041137 0.29053 -0.033821 -0.049843 -0.10897 0.057659 -0.0051955 -0.12193 0.18452 -0.043497 0.1309 0.32408 0.049279 -0.12412 -0.23473 -0.065103 -0.1325 0.36398 0.022735 -0.15708 -0.058168 0.11844 -0.011848 0.043694 0.039633 -0.26053 0.32672 0.17928 0.1103 -0.045212 0.22146 0.15149 0.061161 -0.055577 -0.075315 -0.10055 0.11615 0.19411 -0.10141 0.21326 0.040324 -0.2741 -0.11633 -0.089418 -0.072754 -0.26043 0.084246 -0.0016082 0.1708 -0.035512 
was -0.11286 -0.0066148 -0.11885 0.20306 -0.064513 0.072322 -0.093811 -0.15525 -0.036189 0.34825 0.23176 0.059976 -0.092592 0.092237 0.0147 -0.21753 -0.076763 -0.15456 -0.18715 0.26336 -0.00073416 0.20193 -0.15488 -0.17919 -0.23805 0.071975 -0.12965 0.069309 0.20514 0.20612 -0.1414 0.099385 -0.19516 0.10549 0.050975 -0.15156 -0.13718 -0.010712 0.34531 -0.037236 -0.03744 -0.11631 -0.22042 0.14635 -0.089514 -0.18981 0.074337 0.21624 -0.05004 0.079577 0.02683 0.0079568 -0.15662 0.028236 -0.00059906 0.0042458 0.16613 0.29875 0.17 0.12054 0.22972 -0.049533 -0.029605 0.087271 0.12155 0.0099681 -0.17588 0.014035 -0.31022 -0.084543 -0.052421 0.026532 0.01161 -0.1244 -0.06912 0.032998 -0.14902 0.15951 0.17411 -0.19272 0.04991 -0.010682 0.24032 0.076339 0.047806 -0.16769 -0.3259 0.081583 -0.16958 -0.14046 -0.062004 -0.17957 0.10318 -0.20991 0.097164 -0.048931 -0.13686 -0.074554 -0.15368 -0.10308 -0.11061 0.23124 0.10074 0.063702 -0.083507 -0.07046 -0.11517 0.19426 -0.04978 -0.036442 0.19497 0.079694 -0.046286 -0.058381 0.14444 0.021438 0.075135 0.32819 0.054099 0.17631 0.18208 0.25938 -0.1743 0.43839 0.082798 -0.00031243 0.028419 0.21006 0.060504 0.088364 -0.22041 0.085727 0.1673 0.049687 0.06248 -0.11094 -0.050167 0.024378 -0.14511 0.30282 -0.0054825 -0.069529 0.059002 -0.14639 0.081874 0.25299 -0.099531 -0.10847 0.092277 0.1562 -0.00098428 0.097464 -0.045586 0.1291 -0.1382 0.015656 -0.077233 -0.069546 0.40012 -0.20293 -0.18922 0.082001 -0.14097 0.069866 0.32663 0.04148 0.16718 0.10447 0.34784 0.14208 -0.15894 0.074725 -0.087729 0.17719 -0.022197 -0.18665 -0.096478 0.11452 -0.2316 -0.049632 -0.072876 0.19536 -0.24638 0.26485 -0.17163 0.18342 -0.040482 -0.059225 0.011455 0.098593 -0.10773 -0.34245 0.0081285 0.31403 -0.02537 -0.075752 -0.03759 -0.010813 -0.13641 -0.21098 -0.070242 -0.10866 -0.2711 0.1005 -0.16853 0.034627 0.025884 0.19574 0.42803 0.13828 0.37806 -0.17652 -0.042565 0.15672 -0.024619 -0.067026 -0.22909 -0.17072 -0.27418 0.10913 0.19061 -0.075513 -0.30311 0.038966 0.18328 -0.010708 0.018113 0.12733 0.0019824 0.056872 0.04111 -0.12846 -0.093441 0.066377 -0.14303 -0.10907 0.044746 0.12788 -0.13665 0.12689 -0.029595 0.096401 0.14338 0.13761 0.080356 -0.11623 0.19873 -0.23223 0.12289 -0.17505 0.078037 0.12652 0.16914 -0.010766 -0.071861 -0.065455 -0.21393 0.050287 -0.16871 0.21748 0.1181 0.039186 -0.049363 -0.17246 -0.2875 0.19038 0.012786 0.11273 0.12702 -0.12684 -0.30546 -0.073442 -0.11727 -0.011187 -0.10072 -0.34174 0.37268 0.3018 0.25786 -0.18669 0.10741 -0.11652 -0.091167 0.051356 -0.065339 -0.038404 -0.051191 0.24759 -0.068007 -0.20843 0.12345 -0.054013 -0.26918 -0.00033782 -0.021988 0.063821 -0.084829 0.092362 -0.063667 0.054293 
on -0.029945 0.08308 -0.041043 0.062259 -0.019055 -0.070495 0.10458 -0.11022 -0.052828 -0.21471 -0.010283 0.011255 0.044272 -0.12704 0.13873 -0.10672 -0.031042 -0.036724 0.038023 0.14331 -0.15955 -0.010396 -0.30636 0.0018093 -0.21795 -0.19619 0.15655 -0.26115 0.068009 0.0054802 0.018274 0.27194 -0.063782 0.050576 -0.039229 -0.22498 -0.21599 0.028109 0.27633 -0.19207 0.083086 0.066477 -0.049566 0.12438 -0.22175 -0.024482 0.0092416 0.039755 0.030334 -0.30435 0.059653 -0.18663 0.052629 0.0040435 0.021349 -0.08179 -0.012902 0.051812 -0.10407 0.25295 -0.0083517 -0.21269 0.19349 -0.25011 -0.17148 -0.25245 -0.02836 0.009775 0.010365 0.20992 0.094111 0.045987 -0.10821 -0.12871 0.017863 0.016449 0.35166 0.2368 0.087123 0.0014235 0.076331 0.028697 0.1874 0.097398 0.071689 -0.20054 -0.1518 -0.18455 0.247 -0.24415 -0.099852 0.22032 0.28422 -0.26721 0.18074 0.141 0.024393 -0.1074 -0.12624 -0.027884 -0.14301 -0.096826 -0.1293 -0.03152 -0.12661 -0.036811 -0.061348 0.29519 -0.03723 0.24504 0.10346 -0.13672 0.093343 -0.053711 -0.056038 0.10644 0.085047 0.026389 -0.1212 0.020749 0.36126 0.13563 -0.11141 0.27515 -0.021931 -0.033346 0.26127 0.32768 0.16539 0.2657 -0.11442 -0.10774 0.027501 0.20596 -0.26 -0.17816 -0.0702 0.0029366 0.030597 0.036969 -0.11377 0.26168 -0.20023 -0.086989 -0.042935 0.13088 0.26097 0.0067192 -0.28677 0.2712 -0.25236 -0.2575 -0.39759 0.017236 0.15021 -0.17865 -0.061733 -0.078715 0.13485 -0.11931 -0.1454 0.10977 -0.25129 0.12937 0.23836 0.1737 -0.046556 -0.083078 0.12602 -0.14134 -0.27256 0.19661 -0.26557 -0.17845 -0.18839 -0.044315 -0.051716 0.066204 0.14214 -0.047498 -0.17975 0.024502 0.089698 0.023657 0.1227 0.3495 0.14525 -0.17002 0.12992 -0.036131 0.013646 -0.2935 0.021192 0.027402 -0.035963 0.030356 0.036936 0.10434 -0.34108 -0.22907 -0.10944 0.18918 -0.06642 -0.047107 0.038047 -0.13913 0.065176 -0.062903 0.31345 -0.090358 0.44221 0.088019 -0.085611 0.031707 0.0027451 0.21896 0.0056458 -0.45227 -0.11961 -0.12665 0.23553 -0.089455 -0.031027 0.14073 -0.13621 0.025762 -0.23421 0.04172 0.026577 0.14901 0.35331 0.16014 -0.0858 0.10075 0.11963 0.083981 -0.0085175 -0.10134 0.025867 0.0019921 0.11903 0.090903 0.31105 0.093143 0.26736 0.29493 0.03174 -0.06166 0.25909 0.25553 0.21146 -0.036734 0.1269 0.040165 -0.15194 0.12897 -0.49793 -0.0030868 -0.062966 0.090043 0.34313 0.17949 -0.11345 0.14079 0.073598 -0.15301 -0.046048 0.14508 -0.25676 -0.1302 -0.10335 -0.053122 0.042721 0.24057 -0.18248 -0.14799 0.01282 0.26499 0.038375 -0.041837 0.22512 0.082875 -0.21517 0.1009 0.11119 -0.096562 0.07562 -0.078081 0.15468 -0.19181 0.14994 -0.044552 -0.11669 -0.17937 0.36259 -0.16617 0.13773 0.036366 -0.048136 0.0014706 
s 0.038464 -0.11291 -0.17323 -0.03041 0.15791 -0.019141 0.0019244 -0.11037 -0.076457 0.12753 0.11781 -0.13902 0.099159 0.1102 0.064557 0.086609 0.0032735 -0.0087435 -0.17398 0.054122 -0.28031 0.18313 -0.069872 -0.19947 -0.17661 -0.017548 -0.049704 -0.015239 -0.016797 0.19059 -0.16898 0.52075 -0.14446 0.057708 -0.070047 -0.13201 -0.085839 0.019588 0.18062 -0.37744 0.20453 0.018589 -0.23324 0.15698 0.13667 -0.1235 0.030655 0.20784 0.16087 0.17465 0.063654 -0.065543 0.096355 -0.094331 -0.25684 0.18813 0.057432 -0.073132 0.0077761 0.11959 0.12944 -0.25971 0.13682 -0.016024 -0.37095 0.066671 0.08206 -0.10501 0.11285 -0.038756 0.16821 -0.072626 -0.051393 -0.3861 -0.13619 -0.11603 0.12859 0.17121 0.03961 -0.081267 0.1959 0.056111 0.091625 0.043701 -0.18668 0.033272 -0.13498 0.4151 -0.25299 -0.18425 -0.014946 -0.038079 0.16609 -0.0064121 0.066091 0.02267 0.043807 0.060552 0.080007 -0.17192 -0.13464 0.005538 0.068381 0.04762 -0.23787 -0.12178 -0.17201 0.22628 0.17626 0.14631 0.0043271 -0.036512 -0.12546 -0.016598 0.0025892 0.14845 0.14535 0.23339 0.058385 0.084762 0.099059 0.15039 0.18396 -0.040558 0.164 0.01755 0.12023 0.13814 -0.15704 0.039937 0.161 0.25549 0.18153 0.020778 -0.09425 -0.10346 -0.28616 0.044853 -0.070123 0.01281 -0.051044 -0.094495 -0.15318 0.041003 -0.093269 0.16232 0.2233 0.034059 -0.055275 -0.039754 -0.072807 0.056499 -0.14058 -0.044182 -0.16488 0.052832 0.086518 -0.076868 -0.039924 0.27809 -0.1243 0.20393 0.0011994 0.25289 0.14898 0.033952 0.15503 0.053445 0.2614 -0.045747 -0.084473 -0.14395 -0.18902 -0.13388 -0.12626 0.13108 -0.019506 -0.024184 -0.036778 -0.13597 0.22259 -0.040843 0.095631 0.21741 -0.21438 -0.023312 0.1467 -0.16684 0.23378 0.094925 0.020536 -0.060983 0.085806 0.10767 -0.076936 -0.061339 0.0067582 -0.050502 -0.34804 0.050146 0.015361 -0.061954 0.010673 0.071738 0.06038 -0.31371 -0.043667 0.057637 0.14199 0.059277 0.51126 -0.14883 -0.036146 -0.12154 0.041745 -0.11368 0.13902 -0.36065 -0.14418 0.033538 -0.23366 -0.072889 -0.21204 0.066125 -0.19825 -0.0301 -0.091775 -0.061682 -0.054451 -0.069563 0.031283 0.18651 0.040566 -0.1524 -0.13553 0.25094 0.16633 -0.060563 -0.037528 -0.10264 -0.075712 0.064021 0.05656 0.055054 0.12962 0.081269 0.098875 0.13312 0.019775 0.093859 0.13799 0.066917 0.12089 0.14025 0.057053 -0.021536 -0.11202 -0.15134 0.012022 0.0008462 0.18794 -0.022936 0.12724 0.14248 -0.015237 -0.075361 0.15065 0.11984 0.16618 -0.35692 -0.2474 0.091957 0.042723 0.21117 -0.072008 -0.064827 0.39984 0.27504 0.26081 0.036257 -0.00092725 0.097138 0.11537 -0.087621 0.14525 0.19174 -0.030003 0.21575 0.032843 -0.28628 0.0061119 -0.10856 0.040474 -0.12915 -0.15099 -0.30803 0.00945 0.18243 -0.071865 0.094051 
for -0.043457 0.11336 -0.090211 0.10783 -0.12458 0.010564 -0.053752 0.040688 -0.071978 0.12988 0.18367 -0.19067 0.23183 0.2526 0.1769 -0.067999 -0.032019 -0.091964 0.135 0.14054 0.11034 0.21687 -0.072976 -0.15426 -0.03326 0.026052 0.16755 0.030611 -0.11283 0.088465 -0.29436 -0.017995 -0.18437 0.086588 0.20259 -0.092321 0.046651 -0.10229 0.071462 0.069793 -0.13052 -0.014411 -0.056368 0.15818 -0.020047 -0.10617 0.23458 0.0035062 -0.14388 -0.018622 -0.069637 -0.2153 -0.11409 -0.10171 0.029783 -0.04675 0.20507 0.0067837 -0.13647 0.0070587 0.04308 -0.097742 0.33185 -0.24975 0.11143 0.027497 -0.020893 -0.15535 -0.20601 -0.0264 -0.11679 -0.041209 0.052129 -0.14148 -0.24781 -0.046432 0.30543 0.049252 0.17925 -0.048079 0.080292 0.27301 -0.14418 0.021085 0.013487 -0.24578 -0.25759 0.026981 -0.22953 -0.151 -0.12973 -0.046898 0.36185 -0.21275 -0.028743 0.22011 -0.10697 0.035381 -0.24997 -0.12608 0.020057 -0.24323 0.41437 -0.1849 -0.20688 0.18755 -0.1481 0.19374 -0.23983 -0.072315 0.050876 -0.068533 -0.23756 -0.066878 0.02785 -0.10642 0.065645 -0.12159 0.01709 0.0073716 0.25959 0.26045 0.050632 0.33932 0.060457 0.082843 0.20087 -0.0074604 0.035756 0.22386 0.097792 0.25052 -0.30139 0.085823 0.023561 0.067157 -0.10683 -0.20434 0.021773 0.13849 0.08889 0.064833 0.24942 -0.12314 0.21898 0.092902 -0.066623 0.004371 0.10442 -0.011684 -0.18587 -0.15274 -0.1052 0.056705 -0.077613 -0.098058 0.08235 -0.19676 0.073493 -0.16567 -0.12771 0.068033 -0.050141 -0.0066839 0.22982 -0.0097502 0.01318 -0.17115 -0.085712 -0.094221 -0.21663 -0.18938 -0.15326 -0.064401 -0.12948 0.12967 -0.04457 0.16996 -0.11774 -0.29034 -0.135 -0.13239 -0.020521 0.069121 -0.35345 0.041462 -0.054732 0.082544 -0.030277 -0.023645 -0.0077702 -0.21236 0.19582 0.021462 0.013873 -0.12292 0.0091213 -0.036776 -0.077845 0.21115 -0.20513 0.0020311 -0.062409 -0.086912 -0.070559 0.1628 -0.15556 0.051623 0.32346 0.085333 0.27287 0.0054348 -0.082055 -0.15807 0.12814 -0.017721 0.022306 -0.15821 -0.020882 0.0038859 -0.037751 -0.053051 0.043165 -0.22103 -0.037925 0.20364 0.0069072 -0.019936 -0.014179 -0.080207 0.060495 0.22816 -0.32799 -0.26871 -0.054558 0.1814 0.0098955 -0.055567 -0.099914 0.057165 0.13378 0.12753 0.034018 0.084181 0.17292 0.26984 0.19024 -0.095838 -0.048268 0.26195 0.026921 -0.058127 -0.035345 0.14691 0.09446 0.1235 -0.32641 -0.10359 0.057579 0.1355 0.034544 0.16175 0.13866 0.077932 -0.090037 0.085698 -0.076063 -0.10881 -0.079184 -0.025822 -0.31328 -0.035864 -0.11864 -0.028462 -0.22913 -0.09151 0.066334 0.30559 0.050003 -0.030793 0.24058 0.056887 0.043921 0.13876 0.11531 -0.0049904 -0.0093994 0.1054 -0.18862 0.24032 0.071652 -0.052628 0.093925 0.0019137 -0.053472 -0.23075 0.14242 0.11643 0.090122 -0.067711 
as -0.10668 -0.036518 -0.1063 0.063468 0.11089 0.056798 0.19817 -0.00047669 0.1151 0.12766 0.025721 -0.096167 0.084847 -0.20034 0.16011 -0.13566 0.12913 -0.036482 -0.0013579 0.0052643 -0.18697 0.15282 -0.085003 -0.16923 -0.045447 -0.031521 -0.042384 -0.11903 -0.053743 0.0077491 -0.10079 -0.0014938 -0.23998 0.20515 -0.023961 0.03907 -0.050253 0.013688 0.07491 -0.31991 -0.079342 0.14457 -0.15161 0.0047635 -0.095498 -0.12307 -0.085301 0.25123 0.27485 -0.022108 -0.038877 0.083706 -0.02285 0.079031 -0.084699 -0.015823 0.030432 0.0046942 -0.23436 0.2158 0.042915 -0.16513 0.078436 -0.2917 -0.021577 -0.045501 0.0078394 -0.19502 -0.1083 -0.01386 -0.25153 -0.036888 -0.038306 -0.21965 -0.016194 -0.1347 0.12681 0.11563 0.20419 -0.10326 0.26979 0.040638 -0.079217 -0.1489 0.039404 -0.18841 -0.081222 0.20854 -0.42372 -0.092842 0.02847 -0.064213 0.12222 -0.086276 0.16448 -0.029391 -0.089828 0.12399 -0.2145 0.059643 0.016001 -0.27254 0.17223 -0.05487 -0.04919 -0.0075199 -0.089158 -0.0049213 0.10274 -0.21427 0.019886 -0.10638 -0.22215 -0.027423 0.08864 -0.013108 0.16812 0.058269 -0.029014 -0.13752 0.20446 0.16461 -0.25531 0.24799 -0.17534 -0.1073 0.12386 0.16596 -0.025096 0.060844 -0.06466 0.13571 -0.035465 0.084584 0.11602 0.12394 -0.1146 0.009226 0.024469 0.21552 -0.086623 0.058701 -0.03065 -0.11282 0.21441 0.20956 -0.053683 0.17708 -0.040871 -0.068884 -0.039507 -0.082237 0.026662 0.002197 -0.17169 0.17174 -0.17123 0.0026961 0.32867 0.11802 -0.20242 0.064288 -0.27296 0.17342 0.10837 -0.19019 -0.088144 -0.31898 0.13042 0.25379 -0.18172 -0.003441 -0.2074 -0.17084 -0.18809 -0.067014 -0.0077843 0.12018 0.055609 0.062902 0.051946 0.032556 0.064706 0.16043 0.010894 0.26701 0.15682 -0.19018 0.17844 0.037642 -0.094117 -0.2792 0.0062504 0.20934 0.15969 -0.005166 0.029639 -0.034127 -0.15754 0.08945 -0.12987 0.15607 -0.0063243 0.15625 0.17861 -0.12055 -0.20331 0.19912 0.084713 0.10501 0.52838 -0.076569 -0.10239 0.11299 -0.029849 -0.077256 0.063675 -0.20756 -0.06305 -0.042499 -0.041598 0.02283 -0.21428 0.046132 -0.050075 -0.22019 -0.021104 -0.064426 0.014369 0.058189 0.20217 0.11436 -0.072824 -0.12266 -0.20333 0.27137 0.13923 0.055401 -0.0066487 -0.0019663 0.14431 0.16829 -0.066634 0.20795 0.13077 0.081666 0.076304 -0.14139 0.025815 0.020766 0.152 0.019461 -0.079617 0.11885 -0.032576 0.12693 -0.15425 -0.19208 -0.089979 -0.18192 -0.076191 0.096308 0.084752 -0.077118 -0.15407 -0.40903 -0.2408 0.27727 0.070015 -0.23642 -0.26462 0.09025 -0.083525 -0.055758 -0.0044354 -0.18702 0.34108 0.17177 0.039009 0.014808 0.20067 0.014752 0.03399 0.046347 -0.055452 -0.04778 -0.0083971 0.29187 0.2087 0.04187 -0.085302 0.017596 0.038921 -0.042198 -0.11009 -0.11966 -0.032105 -0.0087815 -5.7399e-05 0.13576 
by -0.13167 -0.040817 -0.23956 0.23064 -0.12696 0.11678 0.10581 -0.20413 0.0080369 0.23646 -0.054108 0.12133 -0.15008 0.11509 0.11896 -0.25209 0.10367 -0.065059 -0.080371 0.12708 -0.014658 0.2269 -0.28552 -0.096679 0.063329 -0.033706 0.01759 0.028157 0.15469 0.033508 -0.23307 0.091283 0.023145 0.13172 0.2012 -0.080005 -0.25302 0.003297 0.23424 -0.094455 0.065775 -0.0028773 0.00034232 0.19717 0.033452 -0.20442 0.0010543 -0.010863 -0.15341 0.065852 0.12561 -0.040625 -0.27178 -0.024283 0.080334 0.022827 -0.097376 0.18855 0.011054 0.038045 -0.02144 -0.21974 0.0035103 0.20461 -0.0075506 0.16733 -0.10361 -0.18865 0.031286 -0.081821 -0.11796 -0.0090501 -0.16731 -0.27503 0.047636 -0.033096 0.11845 0.14352 0.15145 -0.047157 -0.099036 0.042062 0.17922 0.22662 -0.081016 -0.066303 -0.19108 0.092628 0.0024941 -0.065267 -0.14996 -0.11355 -0.078145 -0.13441 0.29873 -0.060622 0.1054 -0.11155 0.026942 0.048895 -0.10103 -0.010862 0.24963 -0.087945 -0.099125 -0.1148 0.1452 -0.11545 0.33225 -0.14523 0.077605 -0.099609 -0.068166 -0.050334 0.049693 0.17082 0.283 0.3763 0.0020146 0.14755 0.07047 0.31503 -0.47475 0.38828 0.058978 0.0626 0.14044 0.1298 0.12159 0.1261 0.19995 0.23574 0.13194 0.25251 0.37902 -0.0049426 0.10706 -0.016369 -0.12881 0.04987 0.25352 0.12318 0.17736 -0.20315 -0.21117 0.099453 0.017912 0.019938 -0.015746 0.20934 0.071116 -0.1477 -0.14592 -0.11236 -0.094642 -0.16884 -0.16842 -0.072051 0.17637 0.101 -0.10587 -0.086128 0.024187 0.011435 0.3069 -0.071507 0.17903 0.11991 0.28315 -0.0010412 -0.18539 0.19078 -0.093839 0.061669 -0.10506 -0.028498 0.01504 0.17677 -0.0046986 -0.1237 -0.11957 -0.33566 -0.35805 0.17801 0.09083 0.21286 0.013965 -0.28891 0.056233 0.021966 -0.094326 -0.36791 0.23437 -0.082501 0.13699 -0.41778 -0.21958 -0.10984 -0.16532 0.032684 0.087233 0.2412 -0.21436 0.019845 -0.063727 -0.073478 -0.21645 0.20205 0.21141 -0.03102 0.573 -0.032144 0.039847 -0.05959 -0.0036714 0.070425 0.15985 0.031499 -0.18282 -0.036042 -0.01486 -0.39543 -0.40932 -0.027014 -0.042265 -0.047627 -0.28248 -0.19428 -0.019236 0.24395 -0.21907 0.011405 -0.12631 0.14487 -0.036576 -0.062648 -0.0084789 0.076445 -0.005565 -0.12415 -0.07852 -0.14686 0.12963 -0.11216 -0.0012184 0.027598 0.017539 -0.2169 0.15463 0.14615 0.12645 0.0058155 0.1358 -0.22443 -0.21958 0.2109 -0.0985 -0.066894 -0.17394 0.017303 0.19829 -0.098625 -0.03713 -0.044018 -0.23748 -0.21127 -0.023497 -0.13315 0.011752 0.001701 -0.15698 0.078147 0.027263 -0.17181 -0.15723 -0.23723 0.22997 0.35097 0.092508 -0.021858 0.00041802 0.129 -0.028015 0.031211 -0.067224 0.087442 -0.027041 0.24614 -0.17322 -0.036277 0.32144 -0.23934 0.13895 -0.014339 -0.068493 -0.066417 0.18929 0.32907 -0.11879 0.0031042 
that -0.23983 0.085832 -0.21831 0.19241 0.025195 0.12355 -0.0069764 -0.17742 -0.02976 0.14019 -0.04131 0.021693 0.031669 -0.066504 -0.010106 -0.039781 0.058352 0.077962 0.10951 0.17083 0.030571 0.075172 -0.19127 -0.26914 -0.07159 -0.0033303 0.16572 0.2414 -0.037835 0.092986 -0.096324 -0.053362 -0.13769 0.2023 0.12228 0.0055089 -0.12261 0.065976 -0.093829 -0.0047912 0.060502 0.034472 -0.089815 0.049682 0.10915 0.19243 0.097466 -0.059112 -0.031561 0.0085642 -0.0097376 -0.1566 -0.030448 -0.03733 -0.21254 0.016531 -0.10968 0.14795 -0.0080269 0.06314 -0.17479 -0.080141 0.16124 -0.071978 0.12406 -0.26999 -0.17197 -0.058859 0.046186 -0.07601 -0.074253 -0.039888 0.057741 -0.19435 -0.10719 0.075766 0.16442 0.062963 0.016998 0.098074 0.051912 0.00796 0.049767 0.074819 -0.16363 0.067474 -0.10452 0.073557 -0.10755 -0.1425 0.089114 0.15841 0.3222 -0.10655 0.083618 -0.092492 0.21919 0.048208 -0.061488 0.049201 -0.062859 -0.13971 0.059256 -0.11582 -0.21935 -0.13681 -0.11235 -0.096347 0.046857 0.035071 -0.11585 -0.023621 0.080661 0.028493 0.06903 -0.18985 0.26623 0.17579 -0.035073 -0.031638 -0.026218 0.14236 0.039761 0.38528 0.038298 -0.010169 0.11729 0.11932 -0.050962 0.22691 -0.17552 0.016449 -0.046997 -0.083699 0.069625 0.014247 -0.10832 0.12289 0.016072 -0.033899 0.10722 0.20054 0.1402 -0.10011 -0.07931 0.12327 -0.0031444 -0.089443 -0.086052 -0.10393 0.032676 -0.14476 -0.056825 -0.034722 -0.095045 -0.17064 -0.035918 0.086298 0.17825 0.063758 -0.12496 0.21052 -0.28584 0.15253 0.13151 0.076388 0.029637 -0.093604 0.12136 0.019785 -0.11168 -0.14822 -0.27724 -0.02827 -0.09676 0.14834 -0.13155 0.19224 -0.017957 -0.10059 0.10913 -0.1554 0.0051412 0.24523 -0.21236 0.11514 0.083901 -0.097453 0.21907 -0.18487 0.024778 -0.35162 0.13614 0.13062 -0.086043 -0.023898 0.060116 -0.0034988 -0.2956 -0.055491 0.19128 0.096245 0.044102 0.097388 -0.073929 -0.13039 -0.063722 -0.0042311 0.10625 0.035973 0.30975 -0.037181 0.15494 -0.065034 0.19122 -0.0046243 -0.024803 -0.21901 0.012198 0.18168 -0.21881 -0.15599 0.026207 0.038486 -0.20256 -0.030282 -0.18647 0.049986 -0.18815 0.018358 0.20436 0.072241 -0.034569 0.056817 0.027542 0.19926 0.18312 -0.070488 0.23106 0.01389 0.0459 -0.070822 0.10671 -0.049261 -0.13885 0.20777 0.12232 0.092241 0.0088502 -0.058793 0.19882 0.19537 -0.15112 -0.017619 -0.040276 0.028941 0.039263 -0.0551 -0.008233 -0.11584 0.081303 -0.0047339 -0.085726 -0.14999 -0.094978 -0.13686 -0.1508 0.12912 -0.12408 -0.11013 -0.18316 -0.050477 0.25119 0.14707 -0.15924 -0.12625 0.19323 0.066352 0.14201 -0.032837 0.04996 -0.063273 0.115 -0.28184 -0.005338 -0.062189 0.067656 0.23157 -0.047256 0.03623 0.17711 0.044209 0.057874 0.031027 0.034118 -0.22109 -0.11154 0.2051 0.061947 -0.15744 
it -0.3366 0.13889 -0.068331 0.0079146 -0.020023 0.093429 0.10182 -0.2151 -0.18844 0.15148 -0.14284 -0.11377 0.11161 -0.23444 0.028262 -0.062042 0.21756 0.095647 0.1698 0.071679 -0.054375 -0.046085 -0.21987 -0.27494 -0.25339 -0.10972 -0.0070419 0.03357 0.12896 0.18848 -0.25815 0.17061 -0.38947 0.3481 -0.041047 -0.12456 -0.086325 -0.19126 0.022593 -0.12725 -0.13036 0.098136 -0.2339 0.008161 0.18667 0.20999 0.063713 -0.028508 -0.054716 -0.11117 -0.010525 0.0070143 -0.0041469 -0.036819 -0.0036929 0.078406 0.0038262 0.26416 -0.06283 0.22119 0.062652 -0.14575 0.18947 -0.098799 -0.038427 -0.24093 -0.10867 -0.089518 0.12916 0.059777 -0.015123 0.14633 0.032212 -0.15511 -0.17298 0.08858 -0.081538 0.27585 -0.040939 0.15529 -0.083451 -0.070103 0.1548 0.19894 -0.094732 0.11057 -0.18328 0.00019708 0.032517 -0.076038 0.051504 0.18083 0.25092 -0.15933 0.1487 0.12631 0.15929 0.17724 0.013187 -0.0839 -0.22055 -0.01915 0.1156 -0.010974 -0.12785 -0.19002 -0.22735 0.013581 0.10532 0.053416 -0.03142 0.04568 -0.079156 0.075019 -0.19182 -0.040826 0.34173 0.17852 0.10964 0.0099851 0.2074 0.10894 -0.17686 0.47952 0.15701 0.11366 0.15475 0.098568 0.090232 0.18289 -0.062892 0.012882 -0.11289 0.047716 0.043811 0.0065159 0.032541 0.28292 0.061777 0.17045 0.047034 0.17219 0.10032 0.11206 -0.019359 0.070779 -0.024869 0.036909 -0.08589 0.18344 0.10946 -0.05685 0.096464 -0.16475 -0.055801 -0.15339 0.073 -0.081217 0.23755 0.069371 -0.16822 0.22798 -0.37593 0.034761 0.15086 0.031813 -0.069746 -0.08961 0.12988 -0.012923 -0.024002 -0.25414 -0.19594 -0.15103 -0.21644 0.045066 -0.16032 0.0044476 0.1035 0.14202 0.18504 0.0066014 0.13737 0.13789 -0.043577 0.032058 0.068189 -0.14007 0.10683 -0.0096826 -0.043681 -0.16244 0.11275 0.3178 -0.070198 0.11798 0.19411 0.026728 -0.29832 0.11729 0.064688 0.07844 -0.059657 0.21912 -0.013091 -0.2641 -0.10992 0.12463 0.13129 0.066074 0.18305 0.10516 0.15296 0.040073 0.16806 0.043346 0.038122 -0.21098 0.072374 0.10674 -0.057004 -0.16355 -0.0067051 -0.13049 0.24781 -0.083042 -0.24073 -0.11134 -0.0094638 0.098692 0.20597 0.17607 -0.20891 0.0030144 -0.12683 0.087142 -0.036535 -0.14635 -0.11332 0.043924 -0.023122 -0.041063 0.2974 -0.16771 0.13906 0.13147 0.17896 -0.017101 0.052858 -0.059781 0.11522 0.2598 -0.18943 -0.062224 0.034479 0.0072344 0.078014 -0.15113 0.17729 -0.11423 0.087861 0.078173 -0.11313 -0.19613 -0.051441 -0.037768 -0.15843 0.24705 -0.00826 -0.31003 -0.34136 0.10744 -0.024086 0.081787 -0.0024878 -0.23679 0.21343 0.18235 0.10686 -0.22907 0.18638 0.015871 -0.24017 -0.20794 0.062498 -0.28062 0.052488 0.14059 0.0051189 -0.048301 0.14975 -0.060221 -0.063074 -0.077547 0.045633 -0.15038 -0.026861 0.14517 0.029054 0.074989 
with -0.064206 0.091714 0.11942 0.4186 0.17465 0.11941 0.31859 -0.1638 0.20565 0.088094 -0.046213 0.15331 0.15775 -0.096504 0.022727 -0.14138 0.0098457 -0.026588 0.021183 0.22972 0.042529 0.027243 0.023137 -0.079872 0.0495 -0.061129 0.10546 0.084905 -0.1019 0.025445 -0.22593 -0.0094519 -0.11316 -0.045476 -0.09911 0.0020657 -0.244 -0.20762 0.27893 -0.030601 0.25438 -0.0434 0.141 0.04117 -0.026832 -0.075766 0.099866 -0.10857 0.052744 -0.0064439 0.014667 0.024091 -0.14823 -0.07514 -0.17639 0.0059049 0.0069194 -0.053316 -0.11206 -0.060583 -0.012822 -0.31799 0.087898 -0.062417 0.048166 -0.0059139 -0.018073 0.23661 -0.1531 0.0032921 -0.12837 0.075429 -0.19725 -0.24712 -0.050858 0.10058 0.12841 0.25282 0.097276 0.010521 0.18361 -0.19749 -0.040444 -0.11185 -0.12698 -0.10152 0.027053 0.095504 0.14746 -0.19452 0.055156 -0.15004 -0.039678 -0.039796 0.34592 0.29379 0.24519 -0.099354 0.060815 -0.26003 -0.061743 -0.05527 0.11014 0.11766 -0.21546 -0.15467 -0.091975 0.11697 0.012867 0.046272 0.03336 0.037781 0.019891 -0.064189 0.07923 -0.12147 -0.021964 0.058927 0.039117 0.28289 0.22152 -0.097244 -0.25084 0.35717 0.14103 -0.091674 0.1179 -0.017291 0.0098494 0.2756 0.15504 0.0081984 -0.24424 0.13351 -0.04132 0.040733 0.17727 0.069788 0.10178 0.1053 -0.14727 0.20263 -0.059392 -0.028766 0.063491 0.18252 -0.0014041 0.10274 -0.16481 -0.066712 0.13842 -0.27265 -0.19634 -0.1605 -0.074205 0.0018183 0.1026 -0.043547 -0.0072141 0.055306 -0.014692 0.22269 -0.012514 0.19233 0.021866 -0.11755 0.040916 -0.1911 0.094486 -0.11347 -0.0054213 -0.1179 -0.15947 0.15329 -0.15299 0.093003 0.0057173 0.24517 -0.22961 -0.10959 0.17229 -0.18358 -0.012696 0.058318 0.040257 0.31104 0.10125 -0.1034 0.086398 -0.051279 0.23686 -0.17961 0.20681 -0.076107 -0.0010114 0.055693 -0.15005 0.19155 -0.26852 -0.0636 0.14674 -0.084562 0.1201 -0.016069 0.15589 0.032152 -0.19939 -0.10605 0.28825 0.29976 0.080001 -0.028872 -0.15065 -0.14277 -0.080955 -0.073138 -0.11025 -0.32096 -0.16664 -0.02429 -0.15989 -0.093246 -0.10673 0.21227 0.058826 -0.040371 -0.15165 0.12092 0.025799 0.13896 0.14107 -0.034768 -0.098782 -0.037076 -0.1742 0.15468 0.20271 -0.2016 0.0056756 0.22209 0.065569 -0.04823 -0.0019982 0.27749 0.053513 0.16785 -0.072915 -0.025025 -0.03041 0.10037 -0.084707 -0.15251 -0.045538 -0.076732 -0.18076 0.019518 -0.29083 -0.18053 -0.053213 0.034254 0.28543 0.19922 0.24063 -0.01772 -0.017605 0.24474 -0.010969 0.14306 0.06392 0.074019 -0.12698 -0.067713 0.029559 0.025171 -0.2451 -0.046625 0.14576 0.19015 0.22647 0.18612 0.087883 0.02785 0.28477 -0.050063 0.16087 -0.043498 0.075641 0.4027 -0.038456 0.19304 0.063723 -0.35619 0.17587 0.22165 0.075605 -0.055085 -0.030707 0.088356 -0.015983 -0.25735 
from 0.074123 -0.24449 -0.20993 0.067707 -0.069055 0.02407 0.039651 -0.075543 0.14965 0.22772 0.23997 -0.15625 -0.13645 -0.16233 -0.136 -0.047394 -0.22722 -0.020578 0.21853 -0.057743 -0.2538 0.07426 -0.4313 0.070787 -0.13236 0.0090762 0.041375 -0.17293 -0.13688 0.047738 -0.096345 0.35734 -0.064074 0.315 0.043262 -0.039828 0.26392 -0.0077835 0.1246 -0.062125 0.049646 -0.19449 -0.10296 -0.13227 0.11914 0.11471 0.19222 -0.10544 0.19141 -0.19164 0.16664 -0.072087 -0.017124 -0.024085 -0.054923 0.18161 -0.41752 0.013846 -0.097548 0.14298 0.18272 -0.095173 0.25565 -0.0038474 -0.065212 -0.0097115 -0.51114 0.24172 -0.084955 -0.10739 -0.22902 0.0097627 0.1284 -0.12305 -0.072091 0.12597 0.22261 0.12579 0.1523 0.060826 0.037958 -0.012942 -0.090394 -0.0034238 0.074824 0.13059 -0.24917 0.060374 -0.20008 0.2994 0.025893 -0.10789 0.092428 -0.0028567 -0.19491 0.23134 -0.028209 0.2477 0.15212 -0.08654 0.035328 -0.057431 0.14291 -0.034993 -0.093676 -0.21335 -0.41108 -0.16943 -0.044907 0.10779 0.24495 -0.0034135 -0.16304 0.037063 -0.058801 0.079125 0.25461 0.16792 -0.10822 0.078622 0.31237 0.021625 -0.1846 0.31997 -0.21529 0.019935 0.22055 0.14881 0.31108 0.13899 0.17772 0.054332 0.08957 0.24212 0.11923 0.062396 -0.049008 -0.21631 -0.2272 -0.053169 0.059956 0.002439 0.20858 0.09573 -0.054505 0.23263 0.16189 -0.061374 0.036911 -0.02273 -0.079022 -0.31311 -0.081871 -0.025641 -0.22911 -0.41586 -0.076673 0.043928 0.0073082 -0.030566 -0.19267 0.12633 -0.24819 -0.020164 0.3443 -0.034356 6.2081e-05 -0.072091 0.32803 -0.28308 -0.2078 0.028662 -0.3094 0.076138 -0.085894 0.29858 -0.012965 -0.052991 -0.14979 -0.04495 0.073995 -0.16588 -0.28257 0.19357 0.040774 0.13921 0.11749 0.029632 0.029503 0.025321 -0.039398 -0.087089 0.31311 0.14639 -0.10493 0.073549 -0.097152 0.22761 -0.17507 -0.21137 -0.19015 -0.11867 -0.31333 -0.039106 -0.18574 0.1103 0.049186 0.21492 -0.23672 0.28303 0.10399 -0.11652 0.07139 -0.013092 -0.11487 -0.16952 0.11821 -0.16995 -0.025376 0.02897 -0.011382 0.0089853 -0.10031 0.19524 -0.26482 -0.11916 -0.23742 -0.29037 0.077017 0.13313 0.18052 0.33469 -0.18892 0.056997 -0.22412 0.057391 -0.092851 -0.073241 -0.066436 -0.097719 -0.026805 0.057282 0.15477 0.040247 -0.15614 0.035466 -0.05528 -0.0016932 0.15164 0.14045 0.022603 -0.024509 -0.029928 -0.024789 -0.23132 -0.0048805 -0.0991 0.021038 -0.15909 0.20374 -0.12693 0.13554 0.3949 0.00044854 -0.28062 -0.1417 0.031939 0.023403 -0.034906 -0.094262 -0.12416 -0.20251 -0.10164 -0.058665 -0.020256 0.051373 0.22868 0.20847 0.20915 -0.07355 0.23702 -0.072579 -0.0068663 -0.049043 0.18509 -0.21591 -0.10739 -0.0068317 0.09578 0.070574 0.069152 -0.026582 0.087377 0.14222 0.044832 0.068534 -0.17147 0.097198 -0.36452 -0.081744 
at 0.084657 -0.22584 0.096451 0.10084 -0.32227 0.06084 -0.14098 0.042526 0.25177 -0.15139 0.28946 -0.22224 0.14715 0.21937 0.017641 -0.075882 -0.054542 -0.019967 0.023136 0.34317 0.19269 0.06061 -0.41196 -0.14237 -0.11288 -0.19504 0.10921 -0.065239 0.17814 0.22521 -0.14425 0.19108 -0.051249 0.3514 -0.033516 -0.10391 -0.15866 -0.04648 0.26894 -0.054653 0.026268 0.024519 -0.153 0.0089207 -0.10311 -0.061886 -0.076662 0.16422 0.19202 -0.15849 -0.10444 -0.32162 -0.017646 0.19714 0.063879 0.15029 0.27939 0.20403 -0.11719 0.11302 0.21741 -0.23783 0.22149 -0.099384 -0.15909 -0.23008 -0.16896 0.048093 -0.34688 0.077259 -0.26626 -0.16247 0.053485 -0.0649 0.017268 -0.16991 0.18329 0.20681 -0.078363 -0.19282 0.10032 0.23402 0.21734 0.16295 0.056857 -0.071505 -0.11856 0.065202 -0.0071105 -0.065222 -0.029953 0.051816 0.4249 -0.18516 0.1631 0.068751 0.24889 0.0087197 -0.16567 0.097582 0.097659 -0.052475 0.14066 0.092822 -0.063293 -0.10292 -0.26192 0.14551 0.084639 0.069376 0.217 -0.079723 0.096226 -0.2802 -0.088477 -0.12311 0.30153 -0.087612 0.026935 0.029043 0.44256 0.079062 -0.027775 0.12976 0.065664 0.098004 0.26257 -0.060456 -0.076672 -0.029265 0.079762 0.052325 0.089596 0.070077 -0.20729 -0.11461 0.2513 0.068273 0.046419 -0.021613 -0.094778 -0.011309 0.065823 -0.037588 0.21715 0.076541 0.069592 -0.12947 0.078394 0.19481 0.066025 -0.32922 0.12043 -0.054116 -0.043916 -0.40659 0.13175 0.042698 0.12824 0.36509 0.01419 0.28955 -0.14103 0.14471 0.17529 0.26788 -0.19957 0.07221 0.053943 -0.20463 -0.27569 -0.045307 -0.40483 0.1223 -0.073105 0.11057 -0.19826 0.29006 -0.19438 -0.27404 0.0019843 0.068304 -0.17825 -0.13397 -0.11317 -0.082058 -0.13167 -0.017088 0.060193 -0.2828 -0.10857 0.085549 -0.10687 0.19298 -0.064046 0.039204 -0.071963 0.0143 -0.18933 -0.23111 0.092391 -0.0045494 0.078846 0.10808 -0.13525 -0.021385 0.17449 0.040101 0.21758 0.42214 0.28144 -0.13084 0.092562 -0.025293 -0.2081 -0.015357 -0.30071 -0.0070475 -0.0086043 0.043435 0.13337 0.055808 -0.10396 0.0426 -0.19165 -0.05732 -0.20715 -0.025886 0.038309 0.041086 0.23983 -0.033461 0.035933 0.11489 0.17574 0.036294 -0.034195 0.13229 -0.15982 -0.0012274 0.14255 -0.025759 0.15796 0.1358 -0.065825 0.19361 0.22163 0.12749 0.13667 0.28978 0.19074 -0.13526 -0.14296 0.033069 -0.52474 -0.080285 -0.21442 -0.282 -0.142 0.24223 -0.083328 0.016296 0.036034 0.23413 0.016184 -0.001913 -0.19888 0.078624 0.024006 0.1797 -0.12137 0.20834 -0.35337 -0.020637 -0.1018 -0.14994 0.39498 0.25541 0.17832 0.072025 0.11042 0.19179 0.068597 -0.0062475 0.087407 0.048029 0.24316 -0.10581 0.033797 -0.098828 0.11308 -0.40658 0.00030372 0.005122 0.032004 0.043654 -0.2884 0.046729 -0.094621 0.20779 
he 0.014665 -0.26812 -0.052296 0.23006 0.031144 0.1326 0.15627 -0.035684 -0.068791 0.37745 0.26 0.065356 0.10545 -0.083843 0.0068441 -0.35062 0.087274 -0.084536 -0.079793 0.14406 -0.099383 0.22698 -0.25031 -0.34414 0.032567 0.20315 0.23225 -0.18451 -0.1058 0.1287 -0.20596 0.055626 -0.18326 0.16372 0.0017453 -0.26181 0.015642 -0.21012 -0.098568 -0.027856 0.0090502 0.15216 -0.14542 -0.060665 -0.012078 -0.10709 -0.025372 0.2335 -0.1346 0.043417 0.040352 -0.13142 -0.10796 0.14868 -0.24327 -0.21122 0.055215 0.2452 0.11917 0.1849 -0.15568 0.027578 0.11264 -0.039423 0.045282 -0.25581 -0.15215 0.24204 -0.17778 -0.020735 -0.11384 -0.18628 0.11145 -0.077367 0.027016 -0.092138 0.21866 0.1661 -0.23244 -0.12927 0.21804 0.06546 0.14573 -0.022755 -0.12254 0.016283 -0.29042 -0.10536 -0.13048 -0.21748 0.088834 -0.35676 0.43895 -0.13208 -0.043485 0.20868 0.040794 0.050524 -0.26054 -0.25543 -0.037681 0.0021933 0.2289 0.12642 -0.12268 -0.021991 -0.13756 -0.12565 -0.016195 -0.030606 0.0046082 -0.24541 -0.002142 0.10537 -0.28513 -0.28361 0.26544 0.17673 -0.19454 -0.092296 0.023453 0.20037 0.051594 0.31713 0.013278 0.01814 0.15886 0.14062 0.0089156 0.11651 -0.21173 0.13483 -0.14015 -0.35175 -0.33749 0.0063774 0.010142 0.02523 -0.21273 -0.053858 -0.04604 -0.014979 0.071772 -0.10722 0.047265 0.17662 0.035781 -0.27281 0.0095576 0.093047 0.042057 -0.12991 -0.038015 0.19335 -0.44323 0.079033 -0.15394 -0.10119 0.151 -0.010138 -0.2738 0.34338 -0.22604 0.28772 0.11076 0.050212 -0.028319 -0.15248 0.26818 -0.086068 0.077829 0.074144 -0.12604 0.0096369 -0.063531 0.24053 -0.11003 0.16175 -0.10464 -0.15088 0.17058 0.082295 -0.14244 0.21725 -0.16858 0.20828 0.033688 0.075818 -0.025683 0.084218 0.0021424 0.032686 0.025107 0.31271 -0.22352 -0.14049 -0.0022511 0.11708 -0.30667 -0.064557 0.21376 -0.065726 -0.17451 0.22245 -0.049137 -0.019059 0.041286 0.10033 0.20715 0.14142 0.17575 -0.0085873 -0.029827 0.053633 0.065397 0.082936 -0.074867 -0.22161 0.029769 0.088741 -0.12474 -0.017533 -0.016169 -0.13967 -0.1801 -0.0185 -0.12567 -0.16774 -0.0074254 0.067426 0.26623 0.23513 -0.16071 -0.16117 0.10872 0.0067142 0.028955 -0.026827 0.0024487 -0.11155 -0.086587 -0.14739 0.12836 0.38225 -0.24315 -0.021359 0.19199 -0.22529 -0.12179 0.078892 -0.095018 -0.20916 -0.059001 -0.055153 -0.22721 -0.033763 -0.21755 0.0082018 0.24165 -0.10292 0.084843 0.13294 0.17828 -0.32875 -0.13609 -0.052415 0.025926 -0.026822 0.1133 -0.17822 -0.30246 -0.083471 -0.28678 -0.01545 -0.19332 -0.3002 0.16762 -0.020979 0.076648 -0.13527 0.082477 0.068317 -0.063771 -0.06968 -0.10251 -0.015942 0.098454 0.15689 0.0030096 -0.12414 0.036338 -0.23409 0.017694 -0.054863 0.073746 0.055707 -0.20249 0.15422 -0.077715 0.22867 
this -0.19964 0.085116 -0.055189 0.13142 -0.034263 0.11687 0.024297 -0.36591 -0.16021 0.13041 -0.051105 -0.19426 0.12888 -0.13138 0.051647 0.02113 -0.14945 0.118 0.26445 0.21531 0.059788 0.14565 -0.13513 -0.082425 -0.30358 0.13601 -0.15623 0.077483 0.22425 0.22971 -0.14523 0.20617 -0.19068 0.13975 -0.067428 -0.039962 -0.011683 -0.029614 -0.19031 -0.17548 -0.026692 -0.10578 -0.11332 0.13866 -0.041102 0.12785 0.084305 -0.16118 0.022081 -0.036854 -0.050079 -0.037985 0.069227 -0.10608 -0.036044 0.28917 0.039558 0.096326 0.14466 -0.013434 -0.091264 -0.040229 0.35294 -0.33489 0.10616 -0.35523 -0.077932 -0.0050663 -0.079543 0.11814 -0.13492 -0.048151 0.13197 -0.26917 -0.18266 0.05242 0.14771 0.25209 -0.090966 0.062938 -0.15311 0.18472 0.044006 0.038439 0.05966 -0.20255 0.026222 0.024488 -0.016858 -0.27549 0.10334 0.10343 0.44464 -0.20755 0.02245 -0.072451 0.10391 0.13244 0.079197 -0.003736 -0.096508 0.035129 -0.011803 0.074741 -0.11641 -0.00064235 -0.15859 0.12314 -0.062408 0.1075 -0.051995 0.079683 -0.061127 0.026742 -0.11837 -0.074877 0.57404 0.066379 -0.053467 0.12976 0.12191 -0.065749 -0.10451 0.38098 0.085549 0.18503 0.044096 0.0056013 -0.00055242 0.29563 0.026896 0.15684 0.12214 0.10538 0.069068 0.21219 0.032334 -0.010033 0.07734 0.12691 -0.010455 0.057988 0.17236 -0.091861 0.039457 0.020577 -0.028288 0.15332 -0.083229 0.11851 0.060821 0.13223 0.14614 -0.2856 -0.014111 -0.23565 0.27903 0.032652 0.017968 0.18232 -0.12464 0.12322 -0.18978 0.030301 0.090686 0.08478 -0.063022 -0.12534 0.15142 -0.015543 -0.36105 -0.19801 -0.21259 -0.18934 0.033945 -0.13825 -0.039777 0.057215 -0.02898 -0.21503 0.081745 -0.064233 0.11149 0.39395 -0.056752 0.23975 0.17848 -0.16583 0.11568 -0.04708 -0.13793 -0.15936 0.27785 0.18192 -0.08966 -0.17054 0.024002 0.10111 -0.33998 -0.040697 0.17376 0.1586 0.10284 0.29167 0.062748 -0.15753 -0.16914 0.20502 -0.10835 -0.035556 0.21803 -0.068972 0.10176 0.0054727 0.33023 -0.20426 0.24388 -0.015076 -0.15243 0.14785 -0.1159 -0.15334 0.19533 -0.10903 0.18967 0.038244 -0.011186 -0.061208 -0.019259 -0.0065419 0.30863 0.09396 -0.15441 0.090379 -0.069162 0.037942 0.29172 -0.035638 0.050326 -0.26106 0.18763 0.084209 0.15093 0.00033666 -0.090248 0.15647 0.27421 0.28715 0.00017502 -0.039501 0.071631 0.11474 -0.15752 -0.046249 -0.14411 -0.20785 -0.1202 -0.29892 -0.071695 -0.12621 0.05428 0.22063 -0.38058 0.056328 0.08667 0.05431 -0.044359 -0.06605 -0.21377 -0.22255 -0.16978 -0.10923 0.25012 -0.025356 0.034712 -0.30406 -0.15446 0.013073 -0.16584 -0.17734 -0.090426 0.017501 0.039702 -0.27064 0.27928 -0.12816 0.024732 0.32566 -0.054112 0.035922 0.018636 -0.24873 -0.072194 -0.091842 -0.034728 -0.11994 -0.036952 0.37121 0.038292 0.13426 
be -0.25026 0.22369 -0.096314 -0.026401 -0.13472 -0.008982 0.065405 -0.47185 -0.051056 0.051511 -0.16824 -0.030949 0.055425 -0.12948 -0.0062735 0.1086 0.1216 0.12408 0.058992 -0.06763 -0.0083828 0.095009 -0.1021 -0.1037 -0.15302 0.021146 -0.036643 -0.040302 0.14088 0.15744 -0.0088583 0.027898 -0.1389 0.053186 -0.12304 -0.091924 -0.15491 0.28233 -4.7579e-05 -0.37132 -0.20302 0.0099404 -0.17615 0.065376 0.068181 0.05025 0.076486 0.070419 0.067646 -0.033892 0.014993 -0.3001 -0.1197 -0.072569 -0.078529 0.030499 -0.048392 0.25323 -0.37985 0.081339 -0.0005548 -0.17629 -0.025923 0.13305 0.0017028 -0.057541 -0.18037 0.06683 0.018062 0.036975 -0.31258 0.23392 0.028911 -0.30242 -0.11193 0.10407 0.20486 0.069179 0.17624 -0.19341 0.12059 -0.13434 0.2001 -0.13353 -0.14275 -0.099292 0.075853 0.09379 -0.32696 -0.3651 -0.092877 -0.10166 0.046329 -0.35481 -0.098609 0.080704 0.14017 0.21821 -0.087556 -0.028255 -0.033402 -0.12697 0.084909 -0.1059 0.062273 -0.13115 -0.20217 0.21356 -0.1352 0.064972 -0.0084728 -0.1492 -0.18754 0.23022 0.12852 -0.20356 0.27514 0.1692 -0.062528 0.17163 0.026962 0.20587 -0.29252 0.55029 0.17327 -0.053048 0.19823 0.17507 -0.059659 0.22113 -0.31647 0.034778 0.014308 0.36628 0.091454 0.13519 -0.021655 0.084731 -0.0080609 0.024732 -0.17821 -0.067393 0.10119 -0.16821 -0.11191 -0.086037 -0.14364 -0.10889 -0.099915 0.10719 0.056134 -0.017866 -0.0056781 -0.099943 -0.22417 -0.18912 -0.034503 0.057475 0.24023 0.099867 0.0049938 0.22043 -0.31164 -0.056913 -0.02007 0.093747 0.16696 -0.20301 0.090256 0.30012 -0.10868 -0.21016 -0.22773 -0.092926 -0.37742 0.07472 -0.12559 -0.025903 0.026878 -0.18513 0.016609 -0.17193 0.25518 0.29165 0.14476 0.19666 0.35115 0.023523 0.25183 0.084845 -0.15047 -0.47281 -0.10641 0.2948 0.038983 -0.25462 -0.00026834 -0.012001 -0.36371 0.17908 0.15783 0.044898 0.028195 0.015111 -0.039563 -0.2444 -0.21118 0.26483 0.36933 0.064294 0.31829 -0.14861 0.33797 0.22144 0.32405 -0.0056225 0.11812 -0.24185 -0.094248 0.22022 0.11795 -0.25267 -0.18225 -0.093763 -0.14506 0.023154 -0.22244 -0.042051 -0.064813 -0.11526 0.10159 0.19566 -0.12605 0.032872 -0.094309 0.216 0.18244 -0.22899 -0.015609 0.007531 0.16186 0.1413 0.27935 0.078345 -0.086286 0.089518 0.2332 -0.069231 0.10922 0.21872 0.1242 0.056511 -0.13227 -0.015025 0.14657 -0.023266 -0.039107 -0.24631 0.077292 -0.0051662 -0.034316 0.086529 -0.088394 0.14664 -0.32449 -0.16895 -0.32304 0.36483 -0.10341 -0.22328 -0.33559 0.0096681 0.015918 -0.071303 -0.1666 -0.27372 0.17971 -0.0099447 -0.053653 -0.11846 -0.10818 0.11709 -0.13894 -0.076176 0.011088 -0.21972 0.0033401 0.14299 -0.028053 0.13819 0.14463 0.031906 -0.18493 -0.14341 -0.021136 -0.15106 -0.19847 -0.023305 0.16321 0.19618 
i -0.40083 0.13992 0.12907 -0.11844 -0.24409 -0.071496 -0.12624 -0.10538 0.021209 0.17554 0.32066 -0.076655 -0.11599 0.1818 0.094396 -0.18509 0.067021 0.18963 -0.11674 0.0075544 0.20718 -0.08527 -0.082318 -0.48372 -0.19477 0.016658 0.13037 -0.08229 -0.12701 0.077853 0.10845 0.048532 -0.13885 -0.023352 -0.060823 -0.31839 -0.019554 -0.1885 -0.031728 -0.3455 0.053967 0.10746 0.19029 -0.12995 0.086172 0.23445 -0.03202 0.027213 -0.082134 -0.19291 0.041211 -0.54555 0.089378 -0.15301 0.012136 0.30464 -0.20036 0.014034 -0.13102 0.10406 -0.16595 -0.052645 0.035598 -0.17021 0.20491 -0.20084 0.26766 0.097651 0.097701 -0.10981 0.20629 -0.3151 0.29097 -0.026423 -0.082555 0.32322 0.060972 0.086412 -0.024904 0.25225 -0.17195 0.2637 0.07778 0.089817 0.21588 0.18605 -0.079905 0.12193 -0.05187 -0.047023 -0.087624 -0.28111 0.39698 0.044655 0.10639 0.17851 -0.085488 0.017462 0.12033 0.2419 0.054101 -0.095085 0.0081993 -0.16491 -0.24195 -0.37316 -0.10091 0.12269 0.18091 0.19682 -0.12658 0.067759 0.079479 0.0058875 0.097713 0.076515 0.28721 0.36722 -0.24784 0.33637 0.25466 0.065162 0.0038707 0.51321 -0.003927 0.10281 -0.062984 -0.14607 -0.083552 0.27136 -0.053043 0.051284 -0.3034 0.029091 0.14637 -0.010417 -0.095542 -0.016103 0.21725 0.36548 0.10367 0.071429 0.15473 -0.044417 -0.045747 -0.041136 -0.25878 -0.092717 0.016528 -0.12274 0.1247 -0.11255 0.32138 0.0066014 0.064847 -0.10889 0.010849 -0.028336 0.16727 0.4849 -0.38852 0.41925 -0.17268 -0.067313 -0.11283 -0.02391 -0.1155 -0.32136 0.20107 0.20899 -0.20854 -0.18056 -0.22479 -0.35432 0.057972 0.23497 0.10999 0.27061 -0.21413 -0.34127 0.14516 -0.2007 -0.13604 -0.024438 -0.28124 0.17943 0.27596 -0.42049 0.062588 -0.10503 0.18763 -0.2508 0.025648 0.16668 -0.13414 -0.42009 0.036313 0.17262 -0.71421 -0.14795 0.58208 -0.15923 0.016541 -0.091072 0.018594 0.045834 -0.28081 0.18502 0.032248 -0.0015265 0.16549 -0.020355 0.10414 -0.19742 -0.25135 -0.13147 -0.067539 -0.11853 -0.00047116 0.36873 -0.13839 -0.024654 -0.013609 -0.10761 0.14113 0.029728 -0.030725 0.23215 -0.0065696 0.10441 0.11082 0.016597 -0.24006 0.01712 0.099859 0.31432 -0.025396 -0.10787 -0.24261 0.30304 0.15428 0.083706 0.063191 0.15308 -0.011505 0.18101 0.43653 0.064489 0.10644 -0.39561 0.0331 -0.096854 -0.079486 0.19766 0.18531 -0.23033 -0.064171 -0.28063 0.19345 0.033538 0.020194 0.12357 -0.1725 -0.24075 0.0156 0.1166 -0.032856 0.29472 0.033151 -0.039342 -0.36029 -0.075652 0.15121 -0.021539 0.069992 -0.077885 0.15666 0.038273 -0.14749 -0.23696 -0.17154 0.30902 -0.29702 -0.22584 0.061565 -0.052918 0.074938 0.26361 -0.25301 0.026624 -0.09896 0.19602 0.0032991 -0.1712 0.18921 -0.2334 -0.56724 0.23206 0.079414 0.13813 
an -0.067108 0.0014183 -0.18575 0.16489 -0.24534 0.27442 -0.14976 0.1794 0.039032 -0.10412 -0.11836 -0.25005 0.097268 -0.1855 0.079226 -0.30441 0.10697 0.050226 -0.05342 0.15365 -0.083077 0.34187 -0.15903 -0.27095 0.077108 -0.45049 0.1234 0.23913 0.23134 0.36702 -0.31195 0.20269 -0.28004 -0.019993 -0.096778 -0.14713 -0.10808 0.051971 0.12347 -0.35383 0.057994 0.043842 0.015575 0.047289 0.26144 -0.0010199 0.05677 0.094892 0.082452 -0.22758 -0.16154 0.37473 0.034889 -0.12288 -0.04253 -0.12048 0.10472 -0.15786 0.18425 0.016285 -0.18772 0.083207 0.21165 -0.069999 0.1344 -0.26537 -0.20656 -0.013781 0.10536 -0.13477 -0.17973 -0.077508 0.39863 -0.1491 -0.24838 0.030682 0.19628 0.24353 -0.075409 -0.012853 0.13124 0.20169 -0.20009 -0.18221 0.090066 0.10347 0.0078001 0.077707 0.074893 -0.088733 0.31458 0.14006 0.44936 -0.28195 0.21684 -0.099295 -0.12245 0.0055658 -0.13224 -0.059352 -0.47566 0.099382 0.12039 -0.037683 -0.0056518 -0.04537 -0.09163 -0.016393 0.062906 -0.0069165 0.223 0.04041 -0.39129 0.072712 0.3457 0.022961 0.27431 -0.06153 -0.039516 -0.046008 0.44318 -0.021014 -0.25356 0.61883 0.070176 -0.0045592 0.0040353 0.24567 0.026488 0.094534 -0.028609 -0.01744 -0.16636 -0.23643 0.12687 -0.19006 -0.17911 -0.12807 0.024204 -0.051265 -0.23255 0.14934 0.058696 -0.11689 -0.032973 0.27406 -0.30796 0.35716 -0.096392 -0.11453 0.15556 -0.089407 0.16066 -0.080704 -0.27865 -0.25479 0.0035403 0.15614 0.11544 -0.11242 0.07595 -0.10383 -0.27032 0.12984 0.21313 -0.35816 0.27874 0.08321 0.145 0.083449 -0.15985 0.20965 -0.17859 0.016259 0.0031995 0.26716 -0.16324 0.38751 -0.28368 -0.039973 0.21694 0.1252 -0.13253 0.19007 -0.049799 0.16839 -0.10659 -0.0035849 0.082651 -0.048301 -0.075429 -0.28164 0.14112 0.3223 0.09433 -0.1621 0.045591 0.10928 -0.2348 0.37516 0.12891 0.030086 -0.11905 0.038139 0.11584 -0.3211 -0.18984 -0.27154 0.24411 0.1341 -0.04658 -0.12268 -0.050952 0.024939 0.066966 -0.23294 0.024861 -0.24273 -0.23792 0.19572 0.091152 0.020856 -0.017604 0.24744 0.18309 -5.6148e-05 -0.095182 0.23609 -0.21108 0.11985 0.25488 0.049656 -0.052515 -0.0061348 -0.087046 -0.057408 0.28785 -0.10364 -0.02118 0.037593 -0.21986 0.13574 0.082506 -0.15437 0.091008 -0.10259 0.40257 -0.34492 -0.10568 -0.11181 -0.014502 0.071941 -0.51856 -0.044696 -0.27071 0.16498 -0.028239 0.060804 -0.14116 0.16779 -0.10622 0.18766 -0.026886 0.07539 -0.097996 0.060153 -0.33941 0.11857 0.28548 -0.3165 -0.14515 -0.071001 -0.22944 -0.002594 -0.28214 0.02001 0.15415 0.040214 -0.035019 0.076674 0.32477 0.026201 0.041125 0.067551 0.12288 -0.37067 0.17592 0.32079 0.28704 0.071768 -0.019471 -0.38063 -0.18415 -0.19396 -0.046159 -0.40847 0.071106 0.10503 -0.21437 0.094425 
utc -0.48428 -0.32176 0.19893 0.46017 -0.42713 -0.048353 -0.026216 -0.52409 -0.2359 0.27416 -0.35709 -0.40256 0.19366 -0.26495 0.18056 -0.12858 -0.29003 -0.05781 0.13273 0.4141 0.044489 0.0563 -0.045292 0.019726 -0.18585 0.085899 0.10717 -0.12778 -0.027464 0.33869 -0.33442 0.21194 0.091994 0.37348 -0.25865 -0.070619 -0.26126 0.33048 -0.42579 -0.28211 -0.088483 -0.17591 -0.23531 -0.016519 0.011674 0.054129 -0.027932 -0.012981 -0.069228 -0.1482 -0.041675 -0.33993 -0.28414 -0.40908 -0.33748 0.051912 0.42039 0.058315 -0.0071972 0.2767 -0.068376 0.011432 0.46776 -0.051 0.10508 0.15315 0.29191 -0.10465 -0.18159 0.033912 0.010279 0.40703 -0.064585 -0.2132 -0.060905 0.38332 0.22248 0.19513 -0.021815 0.24547 -0.025301 0.38226 0.31938 0.22011 0.53214 0.042947 0.16149 -0.020663 0.092028 0.22657 0.21158 -0.16041 0.18343 -0.13396 -0.06567 -0.027172 0.013964 0.045881 0.065165 0.30027 0.17526 0.066824 -0.052815 -0.12023 0.26095 -0.084145 -0.13253 0.28631 0.060272 -0.11616 -0.17617 0.15855 0.13374 -0.075498 0.077391 -0.20716 0.19825 -0.22598 0.16929 -0.18486 0.48227 -0.34879 -0.43904 0.74208 -0.10392 -0.088865 -0.19534 -0.0027427 0.16728 0.32927 0.081751 0.014656 0.069382 0.33484 0.35977 -0.25077 0.034434 -0.31405 0.30761 0.42403 -0.27366 -0.13119 0.14726 0.33224 -0.14972 0.21281 0.063995 -0.30588 -0.47515 0.024818 0.2833 0.044557 0.13179 -0.084728 0.073318 0.18197 -0.0489 0.15566 0.49161 0.30123 -0.11857 -0.15212 -0.53843 -0.28876 -0.056063 0.0030809 -0.044774 -0.27874 0.29572 0.091087 -0.12764 0.26199 -0.3544 0.18866 -0.068732 0.045772 -0.059951 -0.48742 0.18282 -0.6876 0.0503 -0.2048 -0.0038009 -0.19067 -0.15979 0.26742 -0.13125 -0.066766 -0.0078525 -0.029119 0.0795 -0.38129 0.058981 0.020859 -0.31863 -0.075038 -0.30266 -0.033341 -0.55053 -0.14469 0.13898 0.081754 -0.061965 -0.098797 0.022741 0.17081 -0.29639 0.092066 0.077344 -0.064231 0.4199 0.029425 0.23973 -0.22587 0.09255 -0.092602 0.083138 -0.23305 -0.093396 0.11623 -0.085089 -0.20005 -0.041773 -0.17667 0.21748 0.11927 -0.19868 -0.11158 0.086228 -0.018281 -0.032333 0.11392 0.04883 -0.18285 0.041366 -0.0049917 -0.0068817 -0.21064 0.34286 -0.17382 0.33725 0.16046 0.34214 0.032393 0.11244 -0.11959 0.19667 0.45179 -0.029606 0.038383 0.16415 -0.43648 -0.21521 0.3047 0.0010787 -0.32584 0.29244 -0.0068554 0.2646 0.10143 0.15874 0.12227 -0.12451 0.11889 0.16019 0.062635 -0.26511 0.17294 -0.56961 0.033574 -0.060857 -0.17523 0.40498 0.24806 -0.30159 -0.12636 -0.095589 0.1132 -0.050348 -0.62738 0.040642 0.12592 -0.13136 -0.12702 0.29255 0.067631 0.1487 0.32518 0.22358 0.41682 -0.12407 0.23633 -0.13029 -0.087825 0.31466 -0.12516 -0.097898 0.40406 0.51224 0.10815 
his 0.10402 -0.28821 -0.15818 0.20985 0.049535 -0.002876 0.096098 -0.024723 -0.0050201 0.36894 0.35031 0.16471 -0.030644 0.17483 -0.066523 -0.2175 0.1822 0.086697 -0.13177 0.1011 -0.17153 0.15379 -0.13414 -0.33524 0.03576 0.29399 0.21437 -0.028075 -0.10089 0.1511 -0.10783 0.26146 -0.17181 0.11925 -0.14755 -0.16129 -0.020832 -0.098309 -0.015326 -0.089957 0.22468 -0.03473 -0.04656 -0.009934 0.15348 -0.11242 0.18949 0.307 -0.06551 0.018304 0.12813 -0.10501 -0.20465 0.16126 -0.29858 -0.13633 -0.046175 0.020232 0.049819 0.10887 -0.13646 -0.17847 0.15018 0.20485 -0.011903 -0.13977 0.046085 0.34986 -0.024604 -0.078071 0.056107 -0.090336 -0.11524 -0.21607 -0.076149 -0.20427 0.30443 0.30296 -0.10428 -0.11743 0.10949 0.22764 0.014133 -0.025727 -0.005435 0.13203 -0.21665 -0.068849 -0.22982 -0.17954 0.13009 -0.29531 0.32598 -0.12503 -0.0089292 0.051138 -0.16682 -0.071382 -0.14329 -0.1527 -0.15729 -0.026343 0.18611 0.078273 -0.052514 -0.10873 -0.077471 0.07973 0.0018202 0.19693 0.13191 -0.11219 -0.0067528 -0.010912 -0.17434 -0.20055 0.11816 0.11507 -0.021962 0.016486 0.16514 0.091797 -0.025318 0.15706 0.077311 -0.020868 0.076571 -0.016562 -0.027863 0.0056971 0.02676 0.30276 0.18429 -0.39858 -0.1974 -0.10722 -0.24991 0.032525 -0.058189 -0.15729 -0.069961 0.056673 0.10521 -0.019909 -0.048332 0.25628 0.13982 -0.17149 -0.030595 0.094349 0.19142 -0.07823 -0.027397 0.06945 -0.29189 0.28549 -0.29543 -0.10823 0.086663 -0.10761 -0.29005 0.13072 -0.049561 0.36925 0.040877 0.20516 0.16198 -0.12005 0.30093 -0.16159 -0.11649 0.054376 -0.12412 0.11427 0.074975 0.32926 -0.14556 0.25363 -0.063666 -0.22407 0.14934 0.074311 -0.13327 0.13586 0.0155 0.20365 0.17495 -0.12586 0.16635 0.11568 0.15053 0.038288 0.034325 0.40924 -0.14291 0.045536 -0.19508 0.03175 -0.20573 -0.026723 0.20341 -0.037178 -0.011121 0.060644 -0.043254 -0.037202 -0.0025812 0.11564 0.085551 -0.0076802 0.24845 0.097478 -0.030324 -0.18236 0.10056 -0.0063066 -0.069151 -0.13354 -0.016692 0.10081 -0.12247 -0.11127 0.0041489 0.030739 0.047028 0.17093 -0.18525 -0.36397 0.029484 -0.028286 0.25925 0.17551 -0.10166 -0.19536 -0.10045 0.074277 0.15925 -0.048295 -0.06633 -0.11771 0.015967 -0.19225 -0.0088948 0.42897 -0.056805 -0.05076 -0.067327 -0.22538 0.022078 0.12371 -0.08955 -0.21704 0.13323 -0.067719 -0.18504 0.061412 -0.23275 -0.06545 0.33823 -0.047858 0.038828 0.26028 0.14815 0.047344 -0.15341 -0.16757 0.12126 -0.023437 0.056399 -0.31843 -0.36956 -0.20536 -0.042763 0.35714 -0.17906 -0.30057 -0.042492 0.24998 0.13782 -0.014922 0.060555 0.21477 0.046219 0.066885 0.04799 0.24497 -0.044823 0.18982 -0.025087 -0.18196 -0.046023 -0.29132 -0.12802 -0.032446 0.1587 0.028899 0.077686 0.44013 -0.097676 0.22984 
not -0.10165 0.059919 -0.1232 0.12549 0.081861 -0.10623 0.010521 -0.30959 -0.20744 0.14257 -0.2189 -0.075084 0.051165 -0.23372 0.17875 -0.079692 -0.0025422 0.32958 0.040092 0.082214 -0.070752 0.12185 -0.18589 -0.16153 -0.005884 -0.0061922 0.066425 0.22926 0.09312 0.10566 -0.093385 -0.086662 -0.28523 0.1842 -0.20413 -0.24826 -0.10283 0.26559 0.017577 -0.29948 -0.080651 0.040256 -0.15623 0.12859 0.23405 0.3707 0.16416 -0.24976 0.071859 -0.13659 -0.079147 -0.23499 0.13596 -0.077971 -0.16653 -0.13163 0.12363 0.068203 -0.12249 0.21363 -0.21791 -0.23386 0.24773 -0.1945 0.1456 -0.17696 -0.067882 0.022953 0.15419 -0.13254 0.089502 0.30693 -0.061084 -0.18089 -0.099734 0.10039 0.11981 0.27519 0.066889 0.12991 0.0004807 0.081999 -0.088535 0.095537 -0.043715 -0.058082 -0.1779 0.059431 -0.19557 0.073797 -0.10429 0.2592 0.38376 -0.3283 0.040794 0.1686 0.081748 -0.013447 -0.065994 -0.072089 -0.070913 -0.13503 0.032871 -0.22361 -0.13109 -0.18579 -0.043896 -0.17439 0.12251 0.20237 0.12065 -0.051787 0.091358 0.013848 0.23909 0.070455 0.343 -0.00051651 0.14629 -0.25541 0.18622 0.28975 -0.23453 0.38065 -0.033524 -0.17608 0.089913 0.11165 0.0042652 0.23004 -0.24383 0.05827 -0.15064 0.090602 0.067073 -0.072764 -0.016719 0.12593 0.10604 0.046636 -0.21302 0.19356 0.14575 -0.040098 0.0067549 0.12274 -0.24602 -0.044288 -0.24008 -0.016141 0.15613 -0.071872 0.1744 0.097406 -0.067777 -0.043213 -0.082053 0.13555 0.26349 0.16 -0.14858 -0.0088246 -0.19326 -0.044553 -0.031665 0.070091 -0.040542 -0.19398 0.19131 0.18515 -0.14181 -0.23062 -0.28975 0.10269 -0.007946 0.11435 -0.16898 0.023102 0.082441 -0.013947 -0.1318 -0.28277 0.12417 0.10896 -0.024558 0.28635 -0.044126 -0.003302 0.19125 0.02919 0.028847 -0.22327 -0.10749 0.085832 -0.20578 -0.00034527 -0.16539 -0.10246 -0.25074 0.24211 0.15598 0.086186 0.075045 0.010384 0.085698 -0.016985 -0.14958 0.21403 0.26406 -0.0069881 0.28679 -0.091404 0.2526 -0.0092158 0.10054 -0.078072 0.019475 -0.25116 -0.091251 0.15673 -0.0138 -0.099987 -0.094965 -0.15354 -0.027002 0.092738 -0.33393 -0.0022815 -0.27831 -0.044561 0.36797 0.35371 -0.27255 -0.15559 -0.019929 0.047881 0.23914 -0.044706 -0.040735 0.033079 -0.034221 0.11005 0.23268 -0.039818 0.043159 0.2654 0.29131 -0.047859 -0.023094 -0.12603 0.13355 0.044156 -0.22604 0.14485 0.002346 0.031957 0.10215 -0.17147 0.17108 -0.046337 0.018677 0.15571 -0.26299 -0.1086 -0.17212 -0.085148 -0.22671 0.43174 -0.20754 -0.072317 -0.11661 -0.039356 0.02855 0.14251 -0.12054 -0.20299 0.01639 0.095018 0.09295 -0.1545 0.064815 0.082072 -0.16931 -0.052238 0.1054 -0.10485 0.11488 0.55399 -0.074979 0.063991 0.10147 0.13905 -0.051805 -0.0099941 0.020687 -0.29344 -0.10568 -0.058229 0.10437 -0.097786 
 -0.074243 -0.14581 0.0042414 -0.054143 -0.061729 0.17953 -0.069429 -0.12135 -0.11875 0.16621 0.20177 -0.017226 0.1573 -0.03953 0.090012 -0.036687 -0.26098 0.0041905 -0.11284 0.023359 0.14 0.089038 -0.053351 -0.14647 -0.36383 -0.14891 0.2176 -0.40479 0.34155 -0.34712 -0.21871 0.17763 -0.031031 0.10545 0.24395 -0.19795 -0.093159 -0.44803 0.15658 -0.25791 0.18745 0.068332 -0.072662 0.22322 0.13603 -0.32969 -0.15249 0.085624 0.25487 0.28128 0.010627 -0.35538 -0.033864 -0.16449 -0.089795 -0.27825 0.10672 0.13474 -0.03855 0.343 0.031718 -0.16919 0.091895 0.10994 -0.091711 -0.10035 0.14889 -0.18087 -0.32579 0.0049095 -0.14462 -0.20269 0.055001 -0.070278 0.36124 -0.19905 0.51309 0.015315 -0.24274 0.33375 -0.0067908 0.19277 -0.14527 0.072561 0.11603 -0.094053 -0.021575 -0.15835 0.086366 0.021454 -0.21514 -0.22843 0.11517 0.10596 -0.12265 -0.044811 0.0048639 -0.086847 0.058545 -0.05123 0.22049 -0.033784 0.082348 0.0076006 0.24701 -0.1474 -0.13146 -0.01793 0.22089 -0.32185 0.1407 0.11082 -0.20397 -0.070276 0.17148 -0.064251 -0.090867 0.27986 -0.13876 -0.0034167 0.37916 0.010541 0.097424 0.057774 0.027264 -0.13204 -0.17153 0.20486 0.005908 -0.17919 0.032869 0.026045 -0.067336 0.1405 -0.12048 -0.1356 -0.1709 -0.48859 0.16916 0.042499 0.038963 -0.0965 0.41464 -0.02048 -0.12186 0.34176 -0.085286 -0.037889 0.14855 0.15346 -0.11007 -0.091718 -0.23075 -0.039512 0.073513 0.097324 -0.14733 -0.164 0.21308 0.12019 -0.17643 0.045059 -0.27805 0.31068 0.18107 -0.26007 -0.0096112 0.35491 0.17522 -0.22537 -0.16697 -0.052645 -0.038348 0.10752 0.060932 0.45545 0.029672 0.17492 0.014216 -0.11258 -0.064369 -0.28497 -0.12605 -0.14725 -0.11215 0.50552 -0.021125 0.19148 0.20749 -0.23089 -0.0025873 0.046581 0.27259 0.23126 -0.041411 -0.22447 0.16386 -0.21997 -0.065836 -0.12412 0.048542 -0.27597 -0.22871 -0.13584 0.32973 0.082569 -0.016757 -0.0021851 0.43885 0.30782 0.43322 -0.12505 -0.021478 -0.41959 -0.1909 -0.084843 -0.058456 -0.25144 -0.56395 0.0065123 0.090346 0.095143 -0.35786 0.26598 -0.048906 0.00013924 -0.060989 -0.2965 0.083843 0.21255 -0.049793 0.3673 -0.21245 -0.23451 -0.32343 0.011691 0.06591 0.21766 -0.066193 -0.057447 -0.30345 0.13892 0.2163 -0.33747 -0.021699 -0.19323 0.084407 -0.11848 0.26885 -0.19656 -0.038939 -0.39928 -0.16134 0.12309 0.17358 -0.2044 -0.13378 0.22725 -0.033322 0.082696 0.036003 0.2597 0.2478 -0.07049 0.1423 0.10547 -0.01697 -0.00038213 0.28261 0.29803 -0.31649 0.15573 -0.1565 -0.060337 -0.019986 -0.1741 0.31426 0.15278 0.10003 0.0032204 0.024748 -0.17344 0.0030854 0.50289 0.23061 0.025332 0.022417 0.090369 0.18072 0.18711 0.18092 -0.18509 0.29914 0.027199 -0.15691 -0.022083 -0.061926 -0.087543 0.13087 -0.10008 
are 0.068075 0.11922 0.023882 0.37069 0.014192 0.097715 0.21779 -0.24945 0.0011198 0.16098 0.0064797 0.33891 -0.11749 -0.037715 0.18563 -0.069853 0.17305 -0.031465 0.040186 -0.27739 -0.20284 0.029981 -0.27263 -0.025092 0.091772 0.1102 0.38902 -0.10087 -0.17198 -0.067105 -0.040523 0.079384 -0.14774 0.12478 -0.16603 -0.099398 -0.077271 0.39471 0.0054795 -0.08421 0.012772 -0.18077 -0.030225 0.091158 0.035682 0.069845 0.1622 -0.097343 0.016863 -0.074525 0.053345 -0.21452 0.033379 0.041069 -0.27623 0.077255 -0.014886 0.25726 -0.43105 0.22767 0.0091815 -0.07473 0.22352 0.092458 0.037888 0.28344 -0.27073 0.032617 -0.068675 -0.058164 -0.17353 0.12066 0.0050963 -0.17134 -0.33808 -0.08456 0.21941 0.19253 0.095015 -0.14823 0.0015282 0.10643 -0.057338 0.063292 -0.09634 -0.11199 -0.065599 0.20725 -0.014514 -0.049921 -0.055564 -0.08997 0.013941 -0.33375 0.020615 -0.098456 0.15909 0.008886 0.35115 0.010636 0.262 0.093022 0.18694 -0.18338 -0.16586 -0.13103 -0.072261 0.048203 -0.075256 -0.13489 -0.082061 -0.075493 -0.21996 0.0051421 0.20318 0.0012931 0.067616 0.15115 0.10954 0.21893 0.17318 0.10901 -0.20532 0.29342 0.022555 0.24915 0.32257 0.13122 0.086716 0.21107 -0.096713 0.023109 -0.13828 0.302 0.15696 -0.049769 -0.04199 0.11019 -0.021979 -0.080457 -0.050684 0.26178 0.2403 -0.09769 0.14033 0.11232 -0.32539 -0.034091 -0.03529 0.048993 -0.075889 -0.34727 0.016038 -0.048272 -0.021335 -0.13193 0.11539 0.024062 0.44077 0.038008 0.14401 0.29159 -0.24173 -0.0049045 0.15583 0.10192 -0.10392 -0.28757 0.28469 0.41803 -0.042302 -0.051294 -0.098563 0.34091 -0.11194 0.19712 -0.025254 -0.06966 0.038747 0.060655 -0.089978 0.0086719 0.15042 0.25503 0.27898 0.13669 0.055458 0.05992 0.3318 -0.15095 -0.030234 -0.17807 -0.17358 0.0071614 -0.00084657 -0.27386 -0.050951 0.17567 -0.07578 -0.083602 0.14937 -0.17486 -0.11393 -0.12485 -0.052407 -0.1646 -0.11442 0.18861 0.24865 0.05498 0.14604 0.034552 0.067551 0.21737 0.10234 -0.0341 -0.14013 -0.20881 -0.06207 -0.05566 -0.023096 -0.037693 -0.24167 -0.090629 -0.17715 0.20651 -0.081545 0.015374 -0.013538 -0.059219 -0.19558 -0.098134 -0.16625 -0.20143 -0.33186 0.16345 -0.099827 -0.2949 0.08549 0.021519 -0.0017567 -0.025824 0.19679 -0.06622 -0.031677 0.50367 0.28156 -0.056368 0.16811 0.015189 0.039304 0.1924 -0.24432 -0.14347 0.016411 0.073853 -0.081446 -0.2148 0.12565 -0.15951 0.033415 0.29264 -0.22688 0.012675 -0.34332 -0.094871 -0.16327 0.37924 -0.1183 0.12053 0.17636 0.31 0.15456 -0.0423 0.010965 -0.06829 0.21338 0.1291 -0.20109 0.13406 0.20265 0.017755 0.10243 0.12721 -0.048709 0.1251 0.090134 0.15317 -0.50606 0.39727 0.078705 0.087608 -0.089584 0.1835 0.11305 0.051525 -0.27361 -0.060681 0.37629 -0.1347 
or 0.15704 0.27477 -0.1464 -0.04292 -0.10607 -0.11715 0.051673 -0.32192 0.33107 -0.025881 -0.075172 -0.074813 0.2081 0.099941 0.041541 0.030858 -0.25155 0.25441 -0.084407 -0.051553 -0.17238 -0.15269 -0.18267 0.18355 -0.051123 0.07332 -0.022929 -0.0063468 -0.005875 -0.14793 0.0059168 0.30124 -0.2651 -0.021407 -0.27338 -0.12335 -0.038612 -0.015882 0.11503 -0.11516 -0.0025974 -0.054351 -0.12987 -0.10556 0.13894 -0.015744 -0.15422 0.097752 0.153 -0.12647 -0.1452 -0.1462 -0.13567 -0.13104 -0.4195 -0.075874 0.036777 -0.2402 -0.060928 0.12043 -0.30466 -0.16522 0.24939 -0.0083877 -0.0002194 0.12085 -0.10663 -0.1413 -0.013368 -0.0058912 -0.41856 0.16722 0.012261 -0.039972 -0.16393 0.097758 0.35358 0.064022 -0.02861 0.082674 0.044896 0.04129 0.14051 -0.017957 0.052639 -0.049675 -0.074805 0.16103 -0.17408 -0.022082 -0.083101 -0.27132 0.17934 -0.44707 0.13648 0.22114 -0.0046031 0.23959 -0.12924 -0.0026605 -0.22004 -0.10051 0.025711 -0.13299 0.19071 0.064071 -0.02278 0.0032825 -0.16831 0.043757 -0.11602 -0.091856 -0.38552 0.094749 0.036016 0.077829 0.019377 0.042153 -0.012166 0.4145 0.26425 0.19812 -0.06433 0.26048 0.099399 -0.14283 0.15676 0.21875 -0.06971 0.23653 0.064968 0.05967 0.14283 0.19122 0.19368 -0.10592 -0.14375 -0.11758 0.12519 -0.099381 -0.26858 -0.041878 0.11157 0.09033 0.13836 0.14039 -0.242 -0.054919 -0.25838 0.20088 -0.11406 -0.14746 -0.0050198 -0.1858 -0.24144 -0.0092371 0.11046 0.03752 0.21497 0.014071 -0.22261 0.18182 -0.15965 -0.089955 0.2123 -0.20447 -0.088009 -0.194 0.10807 0.2324 -0.19668 -0.033181 -0.11221 0.20041 -0.16249 -0.030724 -0.17868 -0.012331 0.10392 -0.031104 0.041706 0.061677 0.21223 0.17411 -0.032238 0.32212 0.21967 0.036921 0.2571 0.083746 0.02917 -0.096245 0.12359 0.0010644 -0.24225 -0.19914 0.17453 0.089325 -0.42055 0.13403 0.0055108 -0.14981 -0.0057878 -0.0679 -0.19506 -0.15872 -0.37655 0.27361 0.047729 0.16533 0.054212 -0.021458 0.14338 0.14566 0.015581 -0.17634 0.042809 -0.29286 -0.19828 -0.025737 -0.18551 -0.23724 -0.21856 0.34016 -0.015677 0.21319 -0.21419 -0.027561 -0.021925 -0.022113 0.12934 0.031221 -0.20615 0.03313 -0.12703 0.22021 0.13355 -0.1373 -0.13107 -0.072012 0.053241 0.077847 0.2131 0.03414 0.014275 0.49335 0.29841 -0.013242 0.067344 0.15452 0.14319 0.015675 -0.16666 0.052152 0.095985 0.076897 0.13227 -0.30337 -0.044407 -0.1432 -0.17713 -0.040572 -0.20965 0.067509 -0.14875 -0.26898 -0.15289 0.22591 0.17172 -0.098214 -0.26325 0.22259 0.093613 -0.12336 -0.0639 0.13469 -0.039753 -0.1112 0.20467 0.20881 0.14671 0.062785 -0.016639 0.22037 0.23413 -0.12865 0.21238 0.32971 -0.13284 0.034719 -0.032905 0.047265 -0.0013959 -0.010848 -0.031438 -0.011604 -0.17007 0.16054 0.10169 0.036166 
talk -0.51502 -0.087155 0.29287 0.5651 -0.28805 -0.17474 -0.038578 -0.51808 -0.208 0.057625 -0.25418 -0.070127 0.17217 -0.17911 0.23253 0.0020426 -0.35401 0.046652 0.12056 0.38395 -0.098002 0.35237 -0.041988 0.046982 -0.28973 -0.030722 -0.12125 0.046543 0.018254 0.038112 -0.20077 0.20537 -0.21331 0.15839 -0.44963 -0.09859 -0.042303 0.29175 -0.044655 -0.27497 -0.084447 -0.25379 -0.4609 0.10064 -0.0055138 -0.16253 -0.044512 -0.22172 0.17125 -0.025951 0.031526 -0.378 -0.14173 -0.3983 -0.34191 -0.012546 0.21553 0.055421 0.066442 0.2283 -0.084358 0.082958 0.38922 -0.069284 0.14633 0.12257 0.36995 -0.0031165 0.018671 0.049937 0.091243 0.27755 -0.024257 -0.26027 0.07692 0.28322 0.33993 0.26507 0.067408 -0.033386 -0.18819 0.16684 0.4216 -0.0010725 0.54386 -0.15157 0.10137 0.12335 -0.13373 -0.0099552 0.11231 -0.093794 0.31382 -0.22426 -0.18026 -0.078615 -0.074403 -0.0083639 0.24154 0.26961 0.092677 -0.16979 0.042122 -0.020092 0.36024 0.071364 -0.29228 0.22043 0.066795 0.0076619 -0.30348 0.13248 -0.0071443 0.037317 0.078576 0.016024 0.098381 -0.14786 -0.052254 -0.10443 0.45094 -0.10489 -0.21742 0.47534 0.06089 -0.050889 -0.084747 0.17821 0.035628 0.4539 0.19804 0.22578 -0.077802 0.3353 0.17344 -0.09908 0.059217 -0.17151 0.21276 0.22492 -0.36317 -0.067479 0.15167 0.29204 0.0040326 -0.026961 0.18859 -0.0118 -0.34211 0.11941 0.19878 0.020734 0.26005 -0.054375 -0.13848 -0.030475 -0.10115 0.19098 0.4534 0.29641 0.016614 0.13778 -0.55542 -0.04297 0.0039076 -0.23734 -0.020629 -0.23122 0.19121 0.076433 -0.27428 0.35226 -0.35025 -0.17145 -0.24696 0.26374 -0.035996 -0.42555 0.32856 -0.54186 0.27558 -0.13008 0.10612 -0.057362 -0.40505 0.38429 0.1689 -0.15704 -0.053162 0.19776 -0.20164 -0.22386 -0.0024748 -0.10298 -0.17367 -0.29494 -0.26827 -0.10596 -0.4487 0.10969 0.065727 0.10714 0.28274 -0.036414 0.094313 -0.079026 -0.60359 0.17576 -0.11556 -0.28082 0.5163 -0.15851 0.24633 -0.12513 -0.0021006 0.032827 0.29735 -0.12502 -0.063655 0.30564 0.14165 -0.27447 -0.11954 -0.15022 0.05908 0.055581 -0.33298 -0.36227 -0.1382 -0.012297 -0.0011931 0.17768 0.23547 -0.14427 -0.16888 0.1063 0.1136 -0.018082 0.094457 -0.16756 0.20222 0.14059 0.35022 0.10239 0.057565 0.20441 0.22367 0.48103 0.065504 0.17266 0.31872 -0.43984 -0.30028 0.19134 0.18433 -0.31557 0.14953 -0.1969 0.096832 -0.061628 0.0408 0.091795 -0.21148 -0.013321 0.3421 0.077817 -0.17176 0.23772 -0.39733 0.056059 -0.07854 -0.020592 0.46005 0.17168 -0.26961 -0.17015 0.10934 -0.23509 0.079249 -0.35777 -0.054466 0.4247 -0.23561 -0.099701 -0.051848 -0.14279 0.028812 0.31988 0.21254 0.32248 -0.13966 0.19339 -0.057603 -0.10295 0.33619 -0.14097 -0.048378 0.45479 0.43523 0.14572 
